// This file is generated. Do not edit.
// Generated on: 09.09.2021 11:49:04

#include <stdio.h>
#include <stdlib.h>
#include <vector>
#include "tensorflow/lite/c/builtin_op_data.h"
#include "tensorflow/lite/c/common.h"
#include "tensorflow/lite/micro/micro_mutable_op_resolver.h"
#include "edge-impulse-sdk/porting/ei_classifier_porting.h"

#if EI_CLASSIFIER_PRINT_STATE
#if defined(__cplusplus) && EI_C_LINKAGE == 1
extern "C" {
    extern void ei_printf(const char *format, ...);
}
#else
extern void ei_printf(const char *format, ...);
#endif
#endif

#if defined __GNUC__
#define ALIGN(X) __attribute__((aligned(X)))
#elif defined _MSC_VER
#define ALIGN(X) __declspec(align(X))
#elif defined __TASKING__
#define ALIGN(X) __align(X)
#endif

using namespace tflite;
using namespace tflite::ops;
using namespace tflite::ops::micro;

namespace {

constexpr int kTensorArenaSize = 9901040;

#if defined(EI_CLASSIFIER_ALLOCATION_STATIC)
uint8_t tensor_arena[kTensorArenaSize] ALIGN(16);
#elif defined(EI_CLASSIFIER_ALLOCATION_STATIC_HIMAX)
#pragma Bss(".tensor_arena")
uint8_t tensor_arena[kTensorArenaSize] ALIGN(16);
#pragma Bss()
#elif defined(EI_CLASSIFIER_ALLOCATION_STATIC_HIMAX_GNU)
uint8_t tensor_arena[kTensorArenaSize] ALIGN(16) __attribute__((section(".tensor_arena")));
#else
#define EI_CLASSIFIER_ALLOCATION_HEAP 1
uint8_t* tensor_arena = NULL;
#endif

static uint8_t* tensor_boundary;
static uint8_t* current_location;

template <int SZ, class T> struct TfArray {
  int sz; T elem[SZ];
};
enum used_operators_e {
  OP_PAD, OP_CONV_2D, OP_DEPTHWISE_CONV_2D, OP_ADD, OP_SOFTMAX,  OP_LAST
};
struct TensorInfo_t { // subset of TfLiteTensor used for initialization from constant memory
  TfLiteAllocationType allocation_type;
  TfLiteType type;
  void* data;
  TfLiteIntArray* dims;
  size_t bytes;
};
struct NodeInfo_t { // subset of TfLiteNode used for initialization from constant memory
  struct TfLiteIntArray* inputs;
  struct TfLiteIntArray* outputs;
  void* builtin_data;
  used_operators_e used_op_index;
};

TfLiteContext ctx{};
TfLiteTensor tflTensors[72];
TfLiteEvalTensor tflEvalTensors[72];
TfLiteRegistration registrations[OP_LAST];
TfLiteNode tflNodes[28];

const TfArray<4, int> tensor_dimension0 = { 4, { 1,320,320,1 } };
const ALIGN(8) int32_t tensor_data1[4*2] = { 
  0, 0, 
  0, 1, 
  0, 1, 
  0, 0, 
};
const TfArray<2, int> tensor_dimension1 = { 2, { 4,2 } };
const ALIGN(8) float tensor_data2[32] = { -0.058777332305908203, 0.080455884337425232, 0.070892028510570526, -0.059710204601287842, 0.10138991475105286, -0.078809008002281189, 0.034165218472480774, -0.070197597146034241, -0.068164922297000885, 0.085912995040416718, -0.075797468423843384, -0.046519417315721512, 0.087395936250686646, -0.074914194643497467, 0.069737695157527924, 0.069818146526813507, 0.10314907133579254, 0.0022159349173307419, -0.076522283256053925, 0.079268805682659149, -0.073824219405651093, -0.074188344180583954, -0.06351267546415329, 0.10438032448291779, -0.06113840639591217, -0.067308299243450165, 0.10686828941106796, 0.017804989591240883, -0.062681078910827637, -0.061502546072006226, -0.068464867770671844, -0.0028381948359310627, };
const TfArray<1, int> tensor_dimension2 = { 1, { 32 } };
const ALIGN(8) float tensor_data3[16] = { 1.9024187326431274, -0.42816174030303955, 0.66056591272354126, 0.88313817977905273, 1.6162310838699341, 1.8710033893585205, 0.044947326183319092, 0.30233412981033325, 1.3754332065582275, -0.021091938018798828, 1.8295720815658569, -0.91767317056655884, 1.3117066621780396, -0.42581748962402344, 0.64116966724395752, 1.934651255607605, };
const TfArray<1, int> tensor_dimension3 = { 1, { 16 } };
const ALIGN(8) float tensor_data4[48] = { 0.42081233859062195, -0.3230748176574707, -0.10672947019338608, 0.44115006923675537, 0.8986515998840332, 0.5975797176361084, -0.28977057337760925, 0.86146312952041626, 0.5172770619392395, 0.64782160520553589, 0.064036279916763306, 0.86480575799942017, 0.23497569561004639, 0.10213550180196762, -0.30868873000144958, 0.28526923060417175, 1.0153694152832031, 0.88168150186538696, 0.8266187310218811, -0.23727841675281525, 0.4982832670211792, -0.30012443661689758, -0.10762503743171692, 0.83814293146133423, -0.17377221584320068, -0.57812726497650146, 0.52724760770797729, 0.002746357349678874, 0.7530134916305542, 0.88267850875854492, 0.74547696113586426, -0.047536294907331467, 0.2330978661775589, -0.048313751816749573, 0.97253507375717163, 0.019263437017798424, 0.091149188578128815, -0.15828731656074524, 0.66216486692428589, 0.54658859968185425, 0.43953350186347961, 0.65902578830718994, 0.043747890740633011, -0.14605623483657837, 0.49386689066886902, 0.5089954137802124, 0.30008569359779358, 0.028959738090634346, };
const TfArray<1, int> tensor_dimension4 = { 1, { 48 } };
const ALIGN(8) float tensor_data5[48] = { 0.61212629079818726, -0.025427982211112976, 0.84471136331558228, -0.69398802518844604, -1.134730339050293, -0.47856062650680542, -0.068888247013092041, 2.4480347633361816, -0.37094095349311829, -0.21829208731651306, 0.59592407941818237, 2.9648227691650391, 0.38464325666427612, 0.26075178384780884, 0.21035805344581604, 1.2392822504043579, -0.13213099539279938, 3.5289883613586426, 0.060290060937404633, 0.86999261379241943, 1.522743821144104, -0.22096365690231323, 0.18851709365844727, -1.9840435981750488, 1.1497256755828857, 0.32318845391273499, 0.40356326103210449, 1.1618882417678833, -0.4734174907207489, 1.0213721990585327, -2.0213654041290283, 0.78702998161315918, 0.14508473873138428, 0.43413481116294861, 0.40852540731430054, 0.48360005021095276, -0.83702385425567627, 0.54446148872375488, 0.074591018259525299, 1.2853735685348511, -0.1162116751074791, 0.38504713773727417, 0.42426320910453796, -0.075004339218139648, -0.29078817367553711, -0.13167634606361389, 0.15525901317596436, 0.12492737174034119, };
const TfArray<1, int> tensor_dimension5 = { 1, { 48 } };
const ALIGN(8) float tensor_data6[48] = { 0.70787060260772705, 0.83173733949661255, 0.87550944089889526, 0.36866745352745056, 0.54446238279342651, -0.31911802291870117, 0.98058027029037476, 1.0081173181533813, 0.71868491172790527, -0.30740109086036682, 0.74130654335021973, -0.60912144184112549, 1.0551779270172119, -0.45366322994232178, 0.51569265127182007, 0.99867701530456543, -0.20567417144775391, 0.47466355562210083, 0.19607876241207123, 0.62401378154754639, 0.78293627500534058, 0.80865973234176636, 0.16594572365283966, 1.0415189266204834, 0.96508890390396118, 0.60209453105926514, 0.77918857336044312, 0.52696001529693604, 0.71719306707382202, 0.87045705318450928, 0.1361449658870697, 0.45528131723403931, 0.30212369561195374, 0.49528086185455322, -0.082104340195655823, 0.25523605942726135, -0.70653551816940308, -0.16726236045360565, 0.63044345378875732, 0.70673662424087524, 0.8038983941078186, 0.53148347139358521, 0.81470584869384766, 0.7836417555809021, 0.94822937250137329, 0.80427390336990356, 0.71211892366409302, 0.77441805601119995, };
const TfArray<1, int> tensor_dimension6 = { 1, { 48 } };
const ALIGN(8) float tensor_data7[48] = { 1.3344606161117554, 1.766929030418396, 0.58544284105300903, -0.059767842292785645, 0.46637359261512756, 0.19809098541736603, 1.2578593492507935, -1.5787520408630371, -0.99827110767364502, -0.035634554922580719, -1.0973467826843262, -0.23536527156829834, -1.5050505399703979, -0.28302505612373352, 0.75726819038391113, 3.2226619720458984, 1.375677227973938, 0.44314602017402649, 0.73779410123825073, 0.14691883325576782, -1.3115013837814331, 0.88380157947540283, 1.5752915143966675, 0.13616418838500977, 0.3626130223274231, -0.099642008543014526, 1.7996208667755127, -0.53764498233795166, 0.14079593122005463, 1.1183657646179199, -1.2087483406066895, 1.1110730171203613, 0.59635460376739502, -0.15133091807365417, 0.81433320045471191, 0.6597893238067627, -0.17836718261241913, 0.12048658728599548, 1.2677369117736816, 0.071790777146816254, 0.4488523006439209, -0.38836723566055298, 0.72432118654251099, 0.85444855690002441, 0.92043638229370117, 0.93660259246826172, 0.040850818157196045, -0.060311637818813324, };
const TfArray<1, int> tensor_dimension7 = { 1, { 48 } };
const ALIGN(8) float tensor_data8[48] = { 0.38727322220802307, -0.44932037591934204, 0.2811940610408783, -0.36215537786483765, 0.75336247682571411, -0.087643072009086609, 0.72469371557235718, -0.44546499848365784, 0.20653750002384186, 0.23638510704040527, 0.41856846213340759, 0.86769270896911621, 0.054692599922418594, -0.21510471403598785, 0.17407341301441193, 0.85827529430389404, -0.29847556352615356, 0.83197110891342163, 0.91316580772399902, 0.27581566572189331, -0.14357906579971313, 0.56800752878189087, -0.011610533110797405, 0.72695428133010864, 0.50553840398788452, 0.375355064868927, 0.33568647503852844, -0.027614522725343704, 0.90688520669937134, -0.28618264198303223, 0.43294787406921387, -0.2286277711391449, -0.24727410078048706, 0.79859185218811035, -0.37977483868598938, 0.55374246835708618, 0.35994404554367065, 0.15040643513202667, 0.16579167544841766, 0.7407110333442688, 0.50693148374557495, 0.79136085510253906, -0.5612868070602417, 0.37014633417129517, 0.90574193000793457, 0.14340987801551819, 0.40945303440093994, 0.68202382326126099, };
const TfArray<1, int> tensor_dimension8 = { 1, { 48 } };
const ALIGN(8) float tensor_data9[16] = { 2.6054384708404541, 0.062726154923439026, 0.14120076596736908, 0.62644422054290771, -2.0684049129486084, 0.27071508765220642, 1.4893426895141602, 0.38180834054946899, -0.80762147903442383, -0.22401270270347595, -0.76760733127593994, 0.50266182422637939, 0.17083287239074707, 0.1465170830488205, 0.099830135703086853, -0.50874519348144531, };
const TfArray<1, int> tensor_dimension9 = { 1, { 16 } };
const ALIGN(8) float tensor_data10[48] = { 1.7587215900421143, 0.18658898770809174, 1.5266259908676147, 0.09223628044128418, 1.2720565795898438, -0.32696151733398438, 1.6878197193145752, 0.1883818656206131, 0.76201456785202026, 2.1037681102752686, 0.20580655336380005, 2.9665703773498535, 0.4950106143951416, 0.78267574310302734, 1.4304056167602539, 2.0309844017028809, 0.16707578301429749, -0.067422986030578613, 1.9611896276473999, 2.1456220149993896, 0.15997883677482605, 1.5078896284103394, 0.35079509019851685, 0.70464986562728882, 1.2647826671600342, 1.7579835653305054, -0.40133553743362427, -0.050679266452789307, -2.0007178783416748, 1.2382664680480957, 1.375609278678894, -0.016928046941757202, 0.34932413697242737, 0.40065130591392517, 0.27212619781494141, 1.0524033308029175, 0.99648368358612061, 1.4193791151046753, 0.27802562713623047, 1.4445703029632568, 1.7542026042938232, -0.0019761919975280762, 0.23585447669029236, 1.021736741065979, 0.13575486838817596, 0.14739888906478882, 1.5786560773849487, 1.6695587635040283, };
const TfArray<1, int> tensor_dimension10 = { 1, { 48 } };
const ALIGN(8) float tensor_data11[96] = { 0.30677175521850586, 0.86276322603225708, 0.098548531532287598, 0.34818264842033386, 0.69587975740432739, 1.0378109216690063, 0.067879140377044678, 0.47597625851631165, 0.81751978397369385, -0.0043768351897597313, 0.8019406795501709, 0.52473324537277222, 0.10216876864433289, 0.19580160081386566, 0.45537939667701721, -0.17854700982570648, 0.44523927569389343, 0.62080603837966919, -0.029341522604227066, 0.82709169387817383, 0.31860518455505371, 0.96609222888946533, -0.18968872725963593, 0.15348108112812042, -0.85454541444778442, 0.22738146781921387, 0.65224760770797729, 0.58418118953704834, 0.56110131740570068, 0.13347287476062775, 0.7376863956451416, 0.41584298014640808, 0.35926294326782227, 0.76283824443817139, 0.48514878749847412, 0.81195765733718872, 0.53602445125579834, 0.43906667828559875, 0.56403416395187378, 0.20085433125495911, 0.97866666316986084, 0.25444993376731873, 0.22676405310630798, 0.02682320773601532, 0.37762066721916199, 0.98814499378204346, 0.44448655843734741, 0.96755445003509521, 0.1132977306842804, -0.17651192843914032, 0.37174606323242188, 0.88921874761581421, 0.32253468036651611, -0.30158337950706482, 0.74988949298858643, 0.14328178763389587, 0.23922650516033173, 0.90249282121658325, 0.11578261852264404, 0.36897364258766174, 0.17716126143932343, 0.720039963722229, 0.61924999952316284, -0.13614377379417419, 0.86374574899673462, 0.98794734477996826, 0.59912699460983276, 0.73317468166351318, 0.66013079881668091, 0.37794086337089539, 0.60315841436386108, 0.24869103729724884, -0.61192429065704346, 0.9612383246421814, 0.5239487886428833, 0.5247911810874939, 0.14462326467037201, 0.85479474067687988, 0.56996911764144897, 0.7039940357208252, 0.45332154631614685, 0.15246789157390594, 0.61052906513214111, 1.0679233074188232, 0.071397170424461365, 0.79735279083251953, 0.68270772695541382, 0.46817231178283691, -0.25281539559364319, 0.33600303530693054, 0.2888050377368927, 0.98306632041931152, 0.57651698589324951, 0.39904189109802246, 0.55986946821212769, 0.64930897951126099, };
const TfArray<1, int> tensor_dimension11 = { 1, { 96 } };
const ALIGN(8) float tensor_data12[96] = { 1.0237671136856079, 0.52831393480300903, -0.65696811676025391, 0.76137995719909668, 0.28346154093742371, 1.0934247970581055, -0.1115947961807251, 1.4759155511856079, 1.5862559080123901, -0.8997490406036377, 0.24277448654174805, -1.0533926486968994, 0.78171980381011963, 0.19351047277450562, -0.29341804981231689, -0.9095880389213562, -0.47872906923294067, 0.72058016061782837, -1.0870225429534912, 0.0010047107934951782, 0.55468308925628662, 2.6132283210754395, -0.57918959856033325, 0.035208970308303833, 0.082882046699523926, 0.94793200492858887, -2.1319775581359863, -1.1032854318618774, -1.283750057220459, -0.43362483382225037, 0.25620236992835999, 0.062847726047039032, 1.5153719186782837, 1.2481727600097656, -0.22731758654117584, 1.307212233543396, 0.71290290355682373, 1.0219153165817261, 0.57549691200256348, 0.98958033323287964, 1.6094652414321899, 0.064989984035491943, 0.22757332026958466, 1.00862717628479, 0.041486814618110657, 0.41653713583946228, 0.93558096885681152, 1.268519401550293, -1.2041786909103394, 0.51605433225631714, -1.0563799142837524, 0.39725854992866516, -0.18309789896011353, -1.0561821460723877, -0.13104820251464844, 0.86741948127746582, 0.080910027027130127, 2.1454880237579346, 0.02817709743976593, 1.0823841094970703, -0.74665123224258423, 0.7379920482635498, -0.53926479816436768, 0.89212250709533691, 1.6976302862167358, 1.7885316610336304, 1.1145476102828979, 1.5031663179397583, 0.39654520153999329, -0.39661195874214172, 1.2715312242507935, -0.76677346229553223, 0.54031550884246826, -1.2457842826843262, -0.51712334156036377, -0.438250333070755, 1.3644440174102783, 1.6053557395935059, 1.0135467052459717, 1.2790993452072144, 0.44192850589752197, -0.2858893871307373, 1.0962424278259277, 2.7846624851226807, -0.18139070272445679, -0.88665318489074707, 1.0297541618347168, -1.3092983961105347, 1.3032314777374268, 0.99573606252670288, -0.76276481151580811, -1.0850374698638916, -0.28145301342010498, 0.048724040389060974, 1.7134952545166016, -0.49523121118545532, };
const TfArray<1, int> tensor_dimension12 = { 1, { 96 } };
const ALIGN(8) float tensor_data13[96] = { 0.78295367956161499, 0.46211773157119751, 0.34686243534088135, -0.20007683336734772, 0.52830362319946289, 0.98915910720825195, 0.61015218496322632, 0.31711971759796143, -0.11016581207513809, 0.76634865999221802, 0.24654936790466309, -0.38905435800552368, 0.56924319267272949, 0.6404302716255188, 0.0014393915189430118, 0.0019582072272896767, 0.49208587408065796, 0.79248523712158203, -0.032005202025175095, 0.1564096212387085, 0.46198317408561707, 0.97427314519882202, 0.88261473178863525, -0.18217402696609497, -0.53310590982437134, -0.23369903862476349, 0.80859827995300293, -0.15734274685382843, 0.45885848999023438, 0.10710286349058151, 0.75837379693984985, -0.08419424295425415, 0.89163887500762939, 0.47299680113792419, 0.89948803186416626, -0.70814144611358643, 0.080528870224952698, -0.54438179731369019, 0.0065328832715749741, 0.48798376321792603, 0.56088161468505859, 0.32506421208381653, 0.31837475299835205, -0.096611581742763519, 0.24362172186374664, 0.40123277902603149, 0.50423222780227661, 0.50150203704833984, 0.67034405469894409, 0.52769637107849121, 0.67491257190704346, 0.56994622945785522, -0.51765537261962891, 0.38427251577377319, 0.2135186493396759, 0.33867684006690979, 0.26188910007476807, 0.40789809823036194, 0.65919762849807739, -0.05200982466340065, -0.19927680492401123, 0.70123189687728882, 0.54645353555679321, 0.34834563732147217, 0.58533585071563721, 0.8060075044631958, -0.67678576707839966, 0.51013004779815674, 0.50412845611572266, -0.25727856159210205, 0.69108486175537109, 0.19030922651290894, 0.44123408198356628, 0.38816061615943909, 0.49880707263946533, 0.38037112355232239, 0.0061042411252856255, 0.50252836942672729, 0.28175264596939087, 0.36548686027526855, 0.47682791948318481, 0.44202369451522827, 0.56055361032485962, 0.13904665410518646, 0.29539293050765991, 0.83181285858154297, 0.12991249561309814, -0.098311223089694977, 0.98290741443634033, -0.46812132000923157, 0.19581909477710724, -0.22948616743087769, 0.78824871778488159, 0.38573262095451355, 0.032214876264333725, -0.13006165623664856, };
const TfArray<1, int> tensor_dimension13 = { 1, { 96 } };
const ALIGN(8) float tensor_data14[96] = { -0.23843172192573547, -0.33996367454528809, 0.90371102094650269, -0.70922183990478516, -0.48745918273925781, 2.69679856300354, 1.3358594179153442, 0.91647452116012573, 0.59439343214035034, -0.30098778009414673, 0.96969735622406006, -0.65120035409927368, 1.108335018157959, 1.0028787851333618, 0.85178828239440918, -0.3246002197265625, 0.76341730356216431, -1.4091000556945801, -0.13289695978164673, -0.038206040859222412, -0.72899508476257324, -1.9115617275238037, -1.9429953098297119, -0.38014376163482666, 0.34730982780456543, -0.75680738687515259, -0.80900335311889648, -0.54717105627059937, 0.73562216758728027, -0.86384594440460205, -1.5360159873962402, 0.65051007270812988, 1.7507889270782471, 0.046081632375717163, 0.7966235876083374, -0.018642380833625793, -0.67693495750427246, -0.44408982992172241, -0.11029845476150513, 0.86304402351379395, -0.74456119537353516, -0.61961150169372559, -0.39257782697677612, -0.45962479710578918, 1.4282293319702148, 1.3435864448547363, -0.82635003328323364, -0.56124317646026611, 0.40459442138671875, 1.1685047149658203, 1.2562839984893799, 0.04117092490196228, -0.11710965633392334, 0.76029443740844727, 0.50427925586700439, 0.76463198661804199, 0.46092456579208374, 0.65230321884155273, 1.2866125106811523, 0.12835286557674408, 1.1136729717254639, 1.8329898118972778, 0.43603786826133728, -0.51003706455230713, -0.1017659530043602, 1.6113239526748657, -0.26317095756530762, 0.41970959305763245, -1.1745545864105225, -0.55451542139053345, 1.3942251205444336, 0.85644376277923584, 0.95505738258361816, -0.45710873603820801, 0.50197446346282959, 1.1908925771713257, -0.085665047168731689, 0.66849148273468018, 0.77008706331253052, -0.91483545303344727, 0.6141471266746521, 1.2391690015792847, -0.67654162645339966, 0.26440972089767456, 0.76296132802963257, 0.59857594966888428, -0.78460729122161865, -0.50865989923477173, 1.5918228626251221, -0.8092339038848877, 1.1277992725372314, -0.11406320333480835, -0.52159559726715088, 0.99189633131027222, -0.65415525436401367, -1.2246296405792236, };
const TfArray<1, int> tensor_dimension14 = { 1, { 96 } };
const ALIGN(8) float tensor_data15[96] = { 0.27590367197990417, 0.059543140232563019, 0.56229448318481445, 0.58633673191070557, 0.74519747495651245, -0.48421588540077209, 0.61599135398864746, -0.29340580105781555, -0.30463102459907532, -0.015719860792160034, 0.57556343078613281, -0.4950365424156189, 0.68218314647674561, 0.69771218299865723, 0.42980855703353882, 0.37451416254043579, -0.066544592380523682, 0.011397494003176689, -0.17393054068088531, 0.64293813705444336, 0.39376047253608704, 0.00035534147173166275, 0.39287397265434265, -0.098091907799243927, -0.29438492655754089, 0.68933331966400146, 0.43592071533203125, 0.2591547966003418, 0.79276180267333984, 0.55210328102111816, 0.44659700989723206, 0.34763240814208984, 0.17396734654903412, 0.5700722336769104, 0.72866529226303101, 0.60728025436401367, 0.037291988730430603, 0.36375024914741516, 0.32866629958152771, -0.58540070056915283, 0.070406496524810791, 0.26499179005622864, -0.10769297927618027, 0.39248999953269958, -0.13003027439117432, 0.17849010229110718, -0.30887168645858765, 0.24836078286170959, -0.74254459142684937, 0.30033025145530701, 0.36097681522369385, -0.55680382251739502, 0.66180819272994995, -0.2664107084274292, 0.46490621566772461, 0.20379140973091125, 0.21302616596221924, 0.51711106300354004, -0.2249620258808136, -0.36825409531593323, 0.17285211384296417, 0.32026833295822144, 0.070130638778209686, 0.56822460889816284, 0.76207530498504639, 0.42387551069259644, 0.52954405546188354, 0.63145309686660767, 0.76922225952148438, -0.11324159801006317, 0.60224539041519165, 0.79069274663925171, 0.64599841833114624, -0.16850322484970093, 0.82578003406524658, 0.95732009410858154, 0.21387776732444763, -0.60463470220565796, 0.05951942503452301, 0.10116276144981384, 0.86805474758148193, 0.34400954842567444, 0.038885138928890228, -0.34114542603492737, 0.20668290555477142, 0.22818124294281006, 0.30235734581947327, -0.27916410565376282, 0.61336469650268555, -0.11957219243049622, 0.63321459293365479, 0.16317914426326752, -0.017101088538765907, -0.28039088845252991, 0.05784374475479126, 0.16897620260715485, };
const TfArray<1, int> tensor_dimension15 = { 1, { 96 } };
const ALIGN(8) float tensor_data16[16*3*3*1] = { 
  /* [0][0][][] */ -5.2137203216552734, -6.5507020950317383, -2.0662460327148438, 
  /* [0][1][][] */ 3.3120672702789307, -2.473289966583252, 0.51967096328735352, 
  /* [0][2][][] */ 1.36246657371521, 6.6615443229675293, 0.62407594919204712, 
  /* [1][0][][] */ 44.307025909423828, -38.519378662109375, -4.5736532211303711, 
  /* [1][1][][] */ -51.559341430664062, 43.782726287841797, 9.3937759399414062, 
  /* [1][2][][] */ 5.8232884407043457, -0.81072729825973511, -6.4383606910705566, 
  /* [2][0][][] */ -1.7899841070175171, -0.34662646055221558, -3.4404070377349854, 
  /* [2][1][][] */ 2.2872316837310791, 6.3098025321960449, 8.4581441879272461, 
  /* [2][2][][] */ -0.95801538228988647, -6.5252084732055664, -5.5116496086120605, 
  /* [3][0][][] */ 5.0690813064575195, 5.3272385597229004, 2.3398811817169189, 
  /* [3][1][][] */ -0.095610685646533966, -1.0758342742919922, -0.80751216411590576, 
  /* [3][2][][] */ -4.5624227523803711, -5.6522488594055176, -2.0766570568084717, 
  /* [4][0][][] */ 0.073929764330387115, -0.41003817319869995, 0.049501333385705948, 
  /* [4][1][][] */ 0.13280443847179413, -0.84473341703414917, 0.03507797047495842, 
  /* [4][2][][] */ 0.045101091265678406, -0.52280855178833008, -0.022567780688405037, 
  /* [5][0][][] */ -1.072885274887085, 0.22921948134899139, 0.096633210778236389, 
  /* [5][1][][] */ -1.7885215282440186, 0.24767202138900757, 0.16547860205173492, 
  /* [5][2][][] */ -0.87497049570083618, 0.26348122954368591, 0.16068436205387115, 
  /* [6][0][][] */ -0.31592163443565369, 2.6002042293548584, 4.016944408416748, 
  /* [6][1][][] */ -1.3396681547164917, 1.8724746704101562, -0.31869396567344666, 
  /* [6][2][][] */ -0.8697352409362793, -1.3629215955734253, -2.5186464786529541, 
  /* [7][0][][] */ 0.20909854769706726, 0.094791106879711151, -0.0049765231087803841, 
  /* [7][1][][] */ 0.88382935523986816, 0.43204879760742188, 0.11135953664779663, 
  /* [7][2][][] */ 0.11127155274152756, -0.020331574603915215, -0.13292978703975677, 
  /* [8][0][][] */ -1.0792545080184937, -1.5233352184295654, 2.3023509979248047, 
  /* [8][1][][] */ -2.6099202632904053, -4.130070686340332, 5.7495217323303223, 
  /* [8][2][][] */ -1.305034875869751, -2.9247250556945801, 4.3376326560974121, 
  /* [9][0][][] */ -0.31477910280227661, 0.80431526899337769, -0.09168369323015213, 
  /* [9][1][][] */ -0.23504000902175903, 1.5720611810684204, -0.12362976372241974, 
  /* [9][2][][] */ -0.21245886385440826, 0.87067210674285889, -0.073111064732074738, 
  /* [10][0][][] */ 2.2868349552154541, 8.9625082015991211, 0.90882265567779541, 
  /* [10][1][][] */ -4.2546043395996094, -13.88038158416748, -3.4965944290161133, 
  /* [10][2][][] */ 0.91410708427429199, 3.8825030326843262, 1.4935941696166992, 
  /* [11][0][][] */ 1.9869720935821533, -4.2165536880493164, 2.5593447685241699, 
  /* [11][1][][] */ 15.826826095581055, -22.142974853515625, 8.6576738357543945, 
  /* [11][2][][] */ -20.08509635925293, 30.848394393920898, -10.907637596130371, 
  /* [12][0][][] */ -3.6174755096435547, 4.741602897644043, -0.78347772359848022, 
  /* [12][1][][] */ -11.612044334411621, 10.813569068908691, 0.67775046825408936, 
  /* [12][2][][] */ -7.2958641052246094, 7.3290114402770996, 0.36453860998153687, 
  /* [13][0][][] */ 0.64090150594711304, 0.12060749530792236, -0.038207072764635086, 
  /* [13][1][][] */ 0.8378332257270813, 0.51090359687805176, 0.028363080695271492, 
  /* [13][2][][] */ 0.30977106094360352, 0.36789697408676147, 0.11396252363920212, 
  /* [14][0][][] */ -8.9197864532470703, -8.1449680328369141, 13.671822547912598, 
  /* [14][1][][] */ 12.868413925170898, 28.554435729980469, -36.822338104248047, 
  /* [14][2][][] */ -4.9261460304260254, -20.616378784179688, 22.979856491088867, 
  /* [15][0][][] */ -1.5034623146057129, -0.63699626922607422, 0.38838067650794983, 
  /* [15][1][][] */ -1.4734797477722168, -1.4130772352218628, 0.65158665180206299, 
  /* [15][2][][] */ -0.17461928725242615, -0.93200784921646118, 0.064176969230175018, 
};
const TfArray<4, int> tensor_dimension16 = { 4, { 16,3,3,1 } };
const ALIGN(8) float tensor_data17[8*1*1*16] = { 
  /* [0][0][][] */ -0.029500199481844902,-0.062957555055618286,-0.15745873749256134,-0.58788371086120605,-0.27086198329925537,-0.21453097462654114,0.090684734284877777,-0.21407181024551392,0.34765121340751648,0.1891014575958252,-0.23020121455192566,-0.075013212859630585,0.96431320905685425,0.94425618648529053,-0.18872553110122681,-0.89292067289352417, 
  /* [1][0][][] */ 1.372314453125,-0.5577734112739563,-0.46983417868614197,0.15281020104885101,-0.38160490989685059,0.77740019559860229,-0.69389945268630981,-0.44515252113342285,-0.44899073243141174,0.92207491397857666,-0.35479521751403809,-0.41082921624183655,-0.0069994246587157249,0.14084485173225403,-0.65799915790557861,-0.19720940291881561, 
  /* [2][0][][] */ -0.2949540913105011,-0.64287149906158447,0.25743955373764038,0.17430727183818817,0.37953978776931763,-0.415445476770401,-0.41444340348243713,-0.041411727666854858,0.22093681991100311,-0.51178503036499023,0.22830255329608917,-0.92652136087417603,0.2426246702671051,-0.18001842498779297,-0.59115362167358398,0.24217547476291656, 
  /* [3][0][][] */ 0.47956350445747375,0.14420236647129059,0.17870281636714935,0.24231043457984924,-0.19916984438896179,0.71036839485168457,-0.70475751161575317,-0.22706931829452515,1.5355446338653564,0.54136687517166138,0.056236278265714645,0.21888014674186707,0.15489490330219269,-0.2210734486579895,0.097729422152042389,0.26111310720443726, 
  /* [4][0][][] */ -0.62842702865600586,-0.33124339580535889,-0.23368212580680847,-0.96043789386749268,-0.059955868870019913,0.28122904896736145,0.44696700572967529,-0.74182808399200439,0.29499015212059021,-0.12291430681943893,-0.1976201981306076,-0.22786259651184082,-0.72214293479919434,0.21980205178260803,-0.31218063831329346,-0.23742470145225525, 
  /* [5][0][][] */ 0.80741643905639648,0.25591710209846497,0.44679933786392212,-0.28388461470603943,0.32354399561882019,-0.37110677361488342,-1.0563247203826904,-1.1471494436264038,-0.22314359247684479,-0.65411937236785889,0.73444831371307373,0.39152416586875916,-0.48999068140983582,0.45760935544967651,0.25219234824180603,-0.52982151508331299, 
  /* [6][0][][] */ 0.66277903318405151,0.35285457968711853,-0.77944010496139526,-0.4009702205657959,0.15800319612026215,-0.51105761528015137,0.062673605978488922,-0.56379544734954834,-0.31863367557525635,0.20325268805027008,-0.93999409675598145,0.57777690887451172,0.55371403694152832,-0.48135983943939209,0.077282257378101349,0.36167699098587036, 
  /* [7][0][][] */ -1.3082036972045898,-0.10414732992649078,1.0430856943130493,-0.26002001762390137,-0.59924846887588501,0.075849689543247223,-0.03073522076010704,-0.65336412191390991,-0.58420842885971069,0.62967216968536377,0.83131641149520874,-0.33365312218666077,0.5069124698638916,-0.28844085335731506,0.24921511113643646,0.22935754060745239, 
};
const TfArray<4, int> tensor_dimension17 = { 4, { 8,1,1,16 } };
const ALIGN(8) float tensor_data18[48*1*1*8] = { 
  /* [0][0][][] */ -0.28635451197624207,0.041776254773139954,0.059320438653230667,-0.068662673234939575,-0.39150336384773254,-0.10315555334091187,-0.74655729532241821,0.25937303900718689, 
  /* [1][0][][] */ 0.29109123349189758,-0.2707771360874176,-0.27569714188575745,-0.25245684385299683,0.57110995054244995,-0.47086030244827271,0.3646487295627594,0.11753502488136292, 
  /* [2][0][][] */ -0.3189714252948761,0.47082674503326416,-0.21712572872638702,-0.44525423645973206,0.095060139894485474,0.076260700821876526,-0.041295900940895081,0.14318619668483734, 
  /* [3][0][][] */ 0.25058057904243469,0.14706540107727051,0.349272221326828,-0.11801660060882568,0.40577983856201172,0.48178741335868835,0.55131351947784424,0.11120784282684326, 
  /* [4][0][][] */ -0.11762583255767822,-0.13457080721855164,0.11421313136816025,-0.024048630148172379,-0.081032253801822662,-0.11925725638866425,0.016060804948210716,-0.030934352427721024, 
  /* [5][0][][] */ 0.50123512744903564,0.057828627526760101,0.32359343767166138,0.25792208313941956,-0.29127615690231323,-0.19449099898338318,-0.047849636524915695,-0.013312829658389091, 
  /* [6][0][][] */ 0.059595908969640732,0.13815078139305115,0.63885903358459473,-0.046156328171491623,0.206136554479599,-0.22001791000366211,-0.21409633755683899,0.17357026040554047, 
  /* [7][0][][] */ 0.058618739247322083,0.033903710544109344,-0.21667265892028809,-0.080155640840530396,-0.070630475878715515,0.17099776864051819,0.15215243399143219,-0.10036807507276535, 
  /* [8][0][][] */ -0.095369137823581696,0.4496321976184845,-0.16028763353824615,0.12277746945619583,0.2888927161693573,0.40306088328361511,0.17729726433753967,-0.075863488018512726, 
  /* [9][0][][] */ 0.12910544872283936,0.37684851884841919,-0.41084948182106018,0.60316365957260132,-0.10377944260835648,-0.53353983163833618,0.44031605124473572,0.5363505482673645, 
  /* [10][0][][] */ -0.065357111394405365,-0.57342308759689331,0.0052405879832804203,-0.1791117787361145,-0.38720652461051941,-0.64547836780548096,-0.25579220056533813,-0.26902058720588684, 
  /* [11][0][][] */ -0.31958267092704773,-0.22883924841880798,0.26806613802909851,0.11966948956251144,-0.038903519511222839,-0.14898981153964996,0.22180028259754181,0.15254504978656769, 
  /* [12][0][][] */ -0.10686757415533066,0.097480297088623047,-0.34402960538864136,0.19303053617477417,0.09049341082572937,-0.12320075184106827,-0.18944726884365082,0.32066431641578674, 
  /* [13][0][][] */ 0.43475952744483948,-0.69251567125320435,0.4643598198890686,0.38933616876602173,0.022261330857872963,0.080251611769199371,0.17776000499725342,-0.3048342764377594, 
  /* [14][0][][] */ -0.12822696566581726,0.17361737787723541,-0.12196753174066544,-0.38185802102088928,-0.13181295990943909,-0.37419715523719788,-0.056298080831766129,-0.10821692645549774, 
  /* [15][0][][] */ 0.1409849226474762,0.31142574548721313,0.11430049687623978,0.00071069714613258839,0.14182211458683014,-0.19478598237037659,0.25392046570777893,-0.30497565865516663, 
  /* [16][0][][] */ -0.33573988080024719,-0.23408818244934082,-0.16704313457012177,0.33702412247657776,-0.059873558580875397,0.078345268964767456,-0.074824385344982147,0.3171711266040802, 
  /* [17][0][][] */ -0.021954912692308426,-0.12237129360437393,-0.15980330109596252,0.18526174128055573,-0.074954017996788025,0.018269985914230347,-0.064664915204048157,0.11080612987279892, 
  /* [18][0][][] */ -0.2789672315120697,-0.12935329973697662,-0.083051644265651703,0.19399780035018921,-0.018069647252559662,0.22152262926101685,-0.09498538076877594,0.31732311844825745, 
  /* [19][0][][] */ 0.1370847076177597,-0.52537459135055542,0.41241011023521423,-0.44661989808082581,-0.0057809846475720406,-0.21187639236450195,0.12540048360824585,-0.14700122177600861, 
  /* [20][0][][] */ -0.037287019193172455,0.29559987783432007,0.11773542314767838,0.10679025202989578,0.12892772257328033,0.57543176412582397,0.40975704789161682,-0.029805336147546768, 
  /* [21][0][][] */ 0.064846687018871307,0.20672744512557983,0.066076420247554779,-0.034880157560110092,0.070350848138332367,-0.13676024973392487,0.17092552781105042,-0.21351486444473267, 
  /* [22][0][][] */ 0.010104461573064327,0.010701530613005161,0.5150490403175354,0.14160449802875519,-0.052872352302074432,0.68489032983779907,0.1268501877784729,-0.11586905270814896, 
  /* [23][0][][] */ -0.15560577809810638,-0.10257586091756821,0.13295085728168488,-0.04555857926607132,0.20586535334587097,0.10258256644010544,-0.13821958005428314,-0.21874001622200012, 
  /* [24][0][][] */ -0.23123280704021454,-0.36675870418548584,0.071174502372741699,-0.23869681358337402,0.23113943636417389,0.3286425769329071,-0.113470159471035,-0.3866746723651886, 
  /* [25][0][][] */ 0.80538684129714966,0.094770736992359161,-0.37447670102119446,-0.062858410179615021,0.10116507858037949,0.35058388113975525,-0.42649745941162109,0.092330686748027802, 
  /* [26][0][][] */ -0.45579889416694641,-0.16911326348781586,-0.45303529500961304,-0.13235779106616974,-0.2050931453704834,-0.10573822259902954,0.065672874450683594,-0.016110263764858246, 
  /* [27][0][][] */ 0.48428159952163696,0.20150935649871826,-0.055717490613460541,-0.33395436406135559,-0.58376032114028931,-0.071545958518981934,0.52679049968719482,0.40157940983772278, 
  /* [28][0][][] */ -0.29335680603981018,-0.32645970582962036,-0.13892698287963867,0.1885371059179306,-0.2091219425201416,-0.20306453108787537,0.067905314266681671,0.10962355881929398, 
  /* [29][0][][] */ 0.12471231073141098,0.076549999415874481,0.080493330955505371,-0.15746822953224182,0.058988656848669052,-0.011945106089115143,-0.12130153924226761,-0.11465705931186676, 
  /* [30][0][][] */ -0.16921046376228333,-0.092217728495597839,0.19040621817111969,-0.09428829699754715,0.22598525881767273,0.12524789571762085,-0.13878603279590607,-0.24087171256542206, 
  /* [31][0][][] */ 0.30896851420402527,0.21820445358753204,-0.055192530155181885,0.72792482376098633,0.0076613165438175201,-0.40545564889907837,0.12976862490177155,0.060580294579267502, 
  /* [32][0][][] */ -0.10932087153196335,0.57390493154525757,-0.096523873507976532,0.19425904750823975,0.024459350854158401,0.30932730436325073,0.014052410610020161,0.18948653340339661, 
  /* [33][0][][] */ -0.075984552502632141,0.4822881817817688,-0.38167345523834229,0.14870549738407135,-0.06454148143529892,-0.051315367221832275,-0.0020134362857788801,-0.054528921842575073, 
  /* [34][0][][] */ -0.19116504490375519,-0.27449476718902588,-0.033416487276554108,0.18853089213371277,-0.023960789665579796,0.10453866422176361,0.038454849272966385,0.22609251737594604, 
  /* [35][0][][] */ -0.23325082659721375,0.56238013505935669,-0.16709229350090027,-0.044983204454183578,0.29048088192939758,0.42823466658592224,0.26325803995132446,0.25742599368095398, 
  /* [36][0][][] */ 0.24283848702907562,0.14537107944488525,0.055653303861618042,-0.068236567080020905,-0.35773181915283203,-0.14008218050003052,0.33955320715904236,0.30293673276901245, 
  /* [37][0][][] */ -0.4734228253364563,0.67002570629119873,0.12907323241233826,0.01141546294093132,-0.70643222332000732,0.66795957088470459,-0.19121216237545013,-0.5704953670501709, 
  /* [38][0][][] */ 0.049341406673192978,0.15261881053447723,0.16055169701576233,-0.033899594098329544,0.53185856342315674,0.15436761081218719,0.18539784848690033,0.17900945246219635, 
  /* [39][0][][] */ -0.089796334505081177,-0.22080814838409424,0.18256993591785431,0.021340414881706238,0.096611693501472473,0.098692335188388824,-0.39696165919303894,0.5299755334854126, 
  /* [40][0][][] */ -0.49253970384597778,-0.31329506635665894,-0.35610693693161011,0.38447025418281555,-0.074360519647598267,-0.18498396873474121,0.047208521515130997,0.44608879089355469, 
  /* [41][0][][] */ 0.31135120987892151,0.058065183460712433,0.10144129395484924,0.27341026067733765,-0.10188423842191696,0.010449653491377831,0.05913747102022171,-0.096940562129020691, 
  /* [42][0][][] */ -0.13475364446640015,-0.010840508155524731,-0.22078849375247955,-0.53574174642562866,0.26743361353874207,-0.38289475440979004,-0.074650362133979797,0.37505221366882324, 
  /* [43][0][][] */ 0.17227882146835327,-0.027533739805221558,0.40513256192207336,-0.077941067516803741,0.2467087060213089,0.72917664051055908,0.46333050727844238,0.070319801568984985, 
  /* [44][0][][] */ -0.029607335105538368,-0.08591972291469574,-0.14916792511940002,0.38500100374221802,0.15849915146827698,0.038027729839086533,-0.10972337424755096,-0.1126934140920639, 
  /* [45][0][][] */ 0.12492074072360992,0.24204204976558685,0.30955442786216736,-0.32890138030052185,0.09209732711315155,-0.23115871846675873,0.026838459074497223,-0.37786969542503357, 
  /* [46][0][][] */ -0.10168423503637314,-0.30593797564506531,-0.10120881348848343,0.042431984096765518,-0.0023525822907686234,0.10853655636310577,-0.18949061632156372,0.35051029920578003, 
  /* [47][0][][] */ 0.22299030423164368,0.16410569846630096,0.64549475908279419,-0.12233191728591919,0.49717721343040466,0.60317641496658325,0.63248705863952637,-0.077559657394886017, 
};
const TfArray<4, int> tensor_dimension18 = { 4, { 48,1,1,8 } };
const ALIGN(8) float tensor_data19[8*1*1*48] = { 
  /* [0][0][][] */ -0.27965846657752991,-0.048391938209533691,0.21773114800453186,0.054106187075376511,-0.32877248525619507,-0.17509222030639648,0.14066928625106812,0.10122855752706528,-0.20405255258083344,-0.10212837904691696,-0.41137775778770447,-0.32706499099731445,-0.1616310179233551,-0.56469696760177612,-0.049025308340787888,-0.20011100172996521,0.3167165219783783,-0.23920394480228424,0.2799469530582428,0.26009067893028259,-0.027375232428312302,0.23290853202342987,-0.17890767753124237,0.085695557296276093,-0.0081358989700675011,-0.24306648969650269,0.31662166118621826,-0.04887755960226059,-0.0019873050041496754,-0.24521301686763763,0.14156939089298248,0.083068057894706726,0.59503090381622314,0.23057043552398682,0.33228403329849243,-0.84891945123672485,0.094019897282123566,0.0054732332937419415,-0.099755890667438507,-0.26727932691574097,0.047459065914154053,-0.21285229921340942,0.36462602019309998,0.31644263863563538,0.17330640554428101,0.054101824760437012,0.19716660678386688,-0.033514827489852905, 
  /* [1][0][][] */ -0.013449713587760925,0.1977744847536087,0.38868650794029236,-0.17262937128543854,-0.069936245679855347,0.17485255002975464,-0.27561396360397339,-0.075993664562702179,0.057918261736631393,0.11013903468847275,-0.071693278849124908,-0.41620013117790222,0.040566880255937576,0.50145655870437622,-0.073413796722888947,0.20583118498325348,-0.1302201896905899,0.060406185686588287,-0.22041782736778259,-0.22887830436229706,0.012678301893174648,-0.38483184576034546,-0.14862488210201263,0.092326752841472626,-0.30229315161705017,-0.13235017657279968,-0.077603921294212341,-0.48808938264846802,-0.14386272430419922,-0.097118549048900604,0.15527118742465973,-0.3235490620136261,0.14601702988147736,0.3560301661491394,-0.24234972894191742,-0.0022153740283101797,0.55216991901397705,-0.21626611053943634,0.026465322822332382,0.27421560883522034,-0.1359822154045105,0.18005630373954773,-0.42527469992637634,-0.18267053365707397,0.54763311147689819,-0.073144733905792236,-0.18875852227210999,-0.074774183332920074, 
  /* [2][0][][] */ 0.0036597256548702717,-0.071127474308013916,-0.28998208045959473,0.017881384119391441,0.057717692106962204,0.21326401829719543,0.22006520628929138,0.035329241305589676,0.089517295360565186,0.36334618926048279,-0.11234466731548309,0.15943583846092224,0.44165927171707153,-0.66595888137817383,0.084286883473396301,-0.45546203851699829,0.21946267783641815,-0.57912719249725342,0.20372001826763153,0.29424300789833069,-0.28794991970062256,0.2402970939874649,0.022869829088449478,0.096514135599136353,-0.052525103092193604,0.39162549376487732,-0.21423910558223724,-0.36605069041252136,0.081469506025314331,0.032625872641801834,0.16521812975406647,-0.50734490156173706,-0.2775445282459259,-0.66865426301956177,0.12845253944396973,-0.086964912712574005,0.67564642429351807,0.10579879581928253,-0.044727779924869537,-0.30907142162322998,0.01905728317797184,0.11330277472734451,0.44607296586036682,0.28380328416824341,0.76791983842849731,0.083013541996479034,0.13512995839118958,0.10985688120126724, 
  /* [3][0][][] */ -0.020927160978317261,0.084412075579166412,-0.38020914793014526,0.15577884018421173,0.1191745325922966,-0.1394084244966507,-0.38988006114959717,-0.51969486474990845,0.077157951891422272,-0.009347415529191494,-0.14145457744598389,0.070034325122833252,0.0095740659162402153,0.15845920145511627,0.16786576807498932,0.38522958755493164,-0.021417541429400444,0.057770714163780212,-0.14671732485294342,0.072298526763916016,0.052280303090810776,-0.46797177195549011,0.080261148512363434,-0.25433695316314697,-0.37091106176376343,-0.048379987478256226,0.55596256256103516,-0.081162989139556885,-0.20228509604930878,0.021787827834486961,-0.35786005854606628,0.072923474013805389,-0.035483706742525101,-0.36898782849311829,0.066625192761421204,-0.02964211069047451,-0.082807138562202454,-0.15377695858478546,-0.039538845419883728,0.50135856866836548,-0.20189300179481506,-0.10938940942287445,-0.0045629399828612804,0.10327558964490891,0.16211818158626556,0.058176759630441666,-0.17891508340835571,0.21948049962520599, 
  /* [4][0][][] */ -0.20801703631877899,-0.36198213696479797,-0.089397646486759186,0.025802027434110641,0.24925871193408966,-0.38247296214103699,-0.10945097357034683,-0.034756235778331757,0.32346346974372864,-0.31505808234214783,0.52666085958480835,-0.7505078911781311,0.053113766014575958,0.1635042130947113,0.14210319519042969,0.002477120840921998,-0.24016761779785156,-0.15982997417449951,0.19921094179153442,-0.091123722493648529,-0.15019363164901733,-0.35584688186645508,0.10512171685695648,-0.20734414458274841,0.16605450212955475,-0.14330723881721497,0.38728129863739014,0.50096207857131958,0.31234383583068848,0.17491151392459869,-0.14393886923789978,0.28623881936073303,-0.11419865489006042,-0.11827804148197174,-0.077727720141410828,0.045464001595973969,-0.65380978584289551,0.76549434661865234,0.38805639743804932,-0.17342269420623779,0.22026601433753967,-0.3079211413860321,-0.19768548011779785,-0.25820544362068176,-0.85460418462753296,0.13200558722019196,1.1422889232635498,0.14983281493186951, 
  /* [5][0][][] */ 0.31005236506462097,-0.16359613835811615,0.0037629269063472748,0.20569974184036255,0.10695172101259232,-0.37165093421936035,0.1600184440612793,-0.76490414142608643,0.08928709477186203,-0.36628636717796326,-0.052638843655586243,0.70977944135665894,-0.43548142910003662,0.25026658177375793,0.090676367282867432,-0.46005436778068542,-0.0079315965995192528,-0.51642513275146484,0.072578713297843933,0.01101177092641592,-0.37823763489723206,0.45071056485176086,-0.20541705191135406,-0.29886886477470398,-0.32380887866020203,0.48467829823493958,-0.17259511351585388,-0.044553328305482864,-0.19161653518676758,0.29940029978752136,-0.37291544675827026,-0.26964724063873291,-0.0031229848973453045,0.24021902680397034,0.1202261671423912,0.019375883042812347,-0.28289785981178284,-0.047862090170383453,-0.22292278707027435,-0.24710692465305328,0.085238367319107056,-0.38228410482406616,-0.19826890528202057,-0.0012310929596424103,-0.33009111881256104,0.33525601029396057,0.52243071794509888,0.29610505700111389, 
  /* [6][0][][] */ 0.33236721158027649,-0.11710330098867416,0.1098758727312088,-0.0703745037317276,-0.19269998371601105,-0.17334797978401184,-0.20286363363265991,0.11723999679088593,-0.34630051255226135,-0.056073661893606186,-0.32890886068344116,0.867595374584198,-0.32349658012390137,-0.28588512539863586,-0.072866834700107574,0.32279464602470398,0.022842621430754662,0.36045169830322266,0.13497206568717957,0.24885725975036621,0.17936553061008453,-0.5554547905921936,-0.072355255484580994,0.03621230274438858,0.19528050720691681,0.24817794561386108,-0.46766382455825806,0.065819434821605682,0.037802677601575851,-0.27582809329032898,0.041413366794586182,0.22599425911903381,0.032871801406145096,0.059434834867715836,-0.17994837462902069,-0.031938899308443069,0.042910199612379074,-0.02589249424636364,-0.047495812177658081,-0.016738589853048325,-0.088535875082015991,-0.1156422421336174,0.20773908495903015,0.37725058197975159,-0.059807058423757553,-0.2267124205827713,0.44532680511474609,-0.04568779468536377, 
  /* [7][0][][] */ -0.15327310562133789,0.01351543702185154,0.014943663030862808,0.36624616384506226,0.1716996431350708,0.13857181370258331,-0.0014025918208062649,0.15678538382053375,0.034982409328222275,0.0024892250075936317,0.32422727346420288,-0.026626860722899437,0.59206104278564453,0.49493762850761414,0.19073066115379333,0.30614358186721802,0.21817566454410553,0.21508772671222687,-0.043809700757265091,-0.0058734351769089699,0.13049361109733582,-0.14386437833309174,-0.40804451704025269,-0.10085014253854752,0.042453482747077942,-0.016996674239635468,-0.10367471724748611,0.28396531939506531,0.21442730724811554,-0.062786169350147247,-0.19834114611148834,-0.045936319977045059,0.12111919373273849,-0.0060105845332145691,0.28106275200843811,-0.46297457814216614,-0.43506637215614319,0.19156982004642487,0.21636861562728882,0.22400030493736267,-0.14201216399669647,0.13751688599586487,0.46681997179985046,0.63979184627532959,-0.29302334785461426,-0.064320728182792664,-0.49132397770881653,0.47115230560302734, 
};
const TfArray<4, int> tensor_dimension19 = { 4, { 8,1,1,48 } };
const ALIGN(8) float tensor_data20[48*1*1*8] = { 
  /* [0][0][][] */ 0.059018172323703766,0.38656193017959595,-0.30317685008049011,-0.15037518739700317,-0.0029681159649044275,0.1837344616651535,-0.053577583283185959,0.13735683262348175, 
  /* [1][0][][] */ 0.17308686673641205,-0.11265099048614502,0.227935791015625,-0.30570930242538452,-0.15078587830066681,0.21437560021877289,-0.25208821892738342,-0.082033596932888031, 
  /* [2][0][][] */ -0.10263936966657639,0.19652815163135529,0.26034718751907349,0.068058468401432037,0.26681661605834961,0.031720180064439774,0.11900427937507629,0.11107940971851349, 
  /* [3][0][][] */ 0.27579742670059204,0.15041004121303558,-0.42464008927345276,0.18779873847961426,-0.025221008807420731,-0.25720301270484924,-0.42865020036697388,-0.075732454657554626, 
  /* [4][0][][] */ -0.019234945997595787,0.097766198217868805,0.014837524853646755,-0.33277642726898193,-0.018812919035553932,0.4219241738319397,0.45033320784568787,0.28955888748168945, 
  /* [5][0][][] */ 0.052173998206853867,0.11948437988758087,-0.46666678786277771,-0.2944159209728241,0.18754951655864716,0.21074223518371582,0.06829572468996048,0.031102759763598442, 
  /* [6][0][][] */ -0.11613864451646805,0.32373571395874023,0.10252482444047928,0.16413778066635132,0.10561130195856094,0.042849794030189514,-0.019748343154788017,-0.24765458703041077, 
  /* [7][0][][] */ 0.054273031651973724,-0.013113350607454777,-0.010019024834036827,0.016453003510832787,0.0043810401111841202,0.04986804723739624,0.10458049923181534,0.013197143562138081, 
  /* [8][0][][] */ 0.12341111898422241,0.27143731713294983,0.11357370018959045,0.36577868461608887,0.32337608933448792,0.28536114096641541,0.28325656056404114,-0.29366278648376465, 
  /* [9][0][][] */ 0.18599891662597656,0.18895557522773743,-0.3831707239151001,-0.15606905519962311,0.14460979402065277,0.1976248025894165,-0.032797727733850479,0.24880515038967133, 
  /* [10][0][][] */ -0.23776727914810181,-0.048878040164709091,0.11802013218402863,-0.11657934635877609,-0.090581096708774567,0.0099005540832877159,-0.16706746816635132,0.36661374568939209, 
  /* [11][0][][] */ 0.066593095660209656,-0.33908280730247498,-0.40191322565078735,-0.0035168658941984177,0.0081204446032643318,-0.0073439390398561954,0.074643984436988831,-0.083863310515880585, 
  /* [12][0][][] */ -0.047206003218889236,-0.18147097527980804,-0.10223479568958282,-0.057487331330776215,-0.14118388295173645,0.066297836601734161,-0.061750799417495728,0.060577947646379471, 
  /* [13][0][][] */ -0.073060378432273865,0.065250106155872345,-0.33668729662895203,0.35824486613273621,-0.4327424168586731,-0.084872029721736908,0.039117246866226196,-0.0087665263563394547, 
  /* [14][0][][] */ -0.14804559946060181,-0.066067039966583252,-0.50768965482711792,0.0015391400083899498,0.068986624479293823,0.0066933576017618179,0.044362492859363556,-0.16185888648033142, 
  /* [15][0][][] */ 0.067729949951171875,-0.11050661653280258,-0.19301748275756836,0.017910227179527283,-0.1826288104057312,-0.075629241764545441,-0.063720494508743286,-0.059372443705797195, 
  /* [16][0][][] */ 0.77843296527862549,-0.32496634125709534,0.0022439977619796991,0.29670929908752441,-0.44392400979995728,0.051008045673370361,0.15434847772121429,0.69678992033004761, 
  /* [17][0][][] */ -0.095846906304359436,0.27798029780387878,0.38001266121864319,-0.075241111218929291,-0.10614018887281418,0.012199491262435913,-0.025533048436045647,-0.013101410120725632, 
  /* [18][0][][] */ -0.076327376067638397,-0.4431380033493042,0.12893258035182953,0.32988989353179932,0.034579988569021225,-0.10984208434820175,0.14731724560260773,-0.28367102146148682, 
  /* [19][0][][] */ 0.4586460292339325,-0.21510997414588928,-0.17205007374286652,0.16931153833866119,-0.48531123995780945,0.098199747502803802,0.24611937999725342,0.47857853770256042, 
  /* [20][0][][] */ -0.09477783739566803,-0.36919918656349182,0.21887814998626709,0.18488343060016632,-0.080680996179580688,-0.28629738092422485,-0.0067247794941067696,-0.21337999403476715, 
  /* [21][0][][] */ -0.05541602149605751,-0.15072156488895416,-0.024148529395461082,0.060832533985376358,0.28988867998123169,0.062505878508090973,0.11329054832458496,0.024757882580161095, 
  /* [22][0][][] */ -0.72432219982147217,0.19094711542129517,-0.32894963026046753,0.22211462259292603,0.34887734055519104,0.27213633060455322,-0.4840942919254303,-0.26789483428001404, 
  /* [23][0][][] */ -0.11365590244531631,-0.022878795862197876,0.087160490453243256,-0.027202155441045761,-0.098897837102413177,0.06034739688038826,0.14548248052597046,-0.010703460313379765, 
  /* [24][0][][] */ -0.06518176943063736,0.11057540029287338,-0.06064780056476593,-0.12526361644268036,-0.088114626705646515,0.18712678551673889,0.21943718194961548,-0.026970131322741508, 
  /* [25][0][][] */ -0.2104179859161377,-0.45689290761947632,-0.54213017225265503,-0.15857377648353577,-0.18919055163860321,-0.083334848284721375,-0.23869690299034119,-0.20677661895751953, 
  /* [26][0][][] */ -0.11352355778217316,0.078869685530662537,-0.041259337216615677,0.22356298565864563,-0.10759352892637253,0.03362719714641571,-0.10326474905014038,0.043088827282190323, 
  /* [27][0][][] */ 0.070933908224105835,-0.51212567090988159,0.078741841018199921,0.21396329998970032,0.049014318734407425,-0.2461661696434021,0.037031486630439758,-0.40967926383018494, 
  /* [28][0][][] */ 0.114513099193573,0.64506858587265015,0.22360852360725403,0.39160630106925964,0.59274214506149292,-0.09981854259967804,0.079319782555103302,-0.44677972793579102, 
  /* [29][0][][] */ 0.13163453340530396,0.15239813923835754,-0.064248301088809967,0.033531881868839264,0.061842519789934158,-0.18118767440319061,-0.26221168041229248,0.080630123615264893, 
  /* [30][0][][] */ 0.20126979053020477,-0.20945069193840027,0.24993214011192322,-0.80707275867462158,0.11271975934505463,-0.097604185342788696,0.10982070118188858,-0.12245912104845047, 
  /* [31][0][][] */ 0.18308863043785095,-0.23306892812252045,0.038923200219869614,0.22340336441993713,-0.021934958174824715,0.14330209791660309,0.10220717638731003,0.63540107011795044, 
  /* [32][0][][] */ -0.19678942859172821,-0.32502934336662292,0.095654726028442383,-0.32843369245529175,-0.13754868507385254,0.36125156283378601,0.2610340416431427,0.41422995924949646, 
  /* [33][0][][] */ -0.052063457667827606,0.063041448593139648,0.2145649790763855,-0.10685206204652786,0.068699896335601807,0.41690024733543396,-0.2910345196723938,0.15315254032611847, 
  /* [34][0][][] */ 0.19419625401496887,0.45658928155899048,-0.22641968727111816,-0.27954265475273132,0.14919012784957886,0.30729159712791443,-0.33862346410751343,0.68848353624343872, 
  /* [35][0][][] */ 0.18348534405231476,-0.47222626209259033,0.075458623468875885,0.32996755838394165,-0.15360988676548004,-0.45978507399559021,0.1985497772693634,-0.52203971147537231, 
  /* [36][0][][] */ -0.036161430180072784,-0.044793680310249329,-0.275888592004776,-0.091280966997146606,-0.34670111536979675,-0.22021679580211639,-0.1565113365650177,0.06341155618429184, 
  /* [37][0][][] */ -0.22148188948631287,-0.46324121952056885,0.30455583333969116,0.32846233248710632,-0.097304970026016235,-0.40645712614059448,-0.064855009317398071,-0.22167132794857025, 
  /* [38][0][][] */ -0.13673067092895508,0.081258982419967651,0.11802245676517487,-0.11711491644382477,-0.25217986106872559,-0.21153348684310913,-0.14843848347663879,0.16351327300071716, 
  /* [39][0][][] */ 0.41242724657058716,-0.42068397998809814,0.090693920850753784,0.18275976181030273,-0.082173287868499756,-0.35751244425773621,-0.12999060750007629,-0.41740107536315918, 
  /* [40][0][][] */ 0.0052650710567831993,0.15555372834205627,-0.0015958648873493075,0.023956567049026489,-0.26236844062805176,-0.09446435421705246,-0.1256241500377655,0.048576638102531433, 
  /* [41][0][][] */ 0.26726695895195007,0.23008926212787628,-0.22384041547775269,-0.30369922518730164,0.065898612141609192,0.020055769011378288,-0.033183228224515915,-0.029920227825641632, 
  /* [42][0][][] */ 0.046581294387578964,-0.1324688047170639,-0.10333263128995895,0.014930995181202888,0.2571149468421936,0.01103310938924551,0.11581550538539886,-0.038397621363401413, 
  /* [43][0][][] */ 0.36516076326370239,0.0585208460688591,0.15312092006206512,0.053505029529333115,-0.29086703062057495,-0.091673292219638824,0.31970289349555969,0.363514244556427, 
  /* [44][0][][] */ 0.025087622925639153,0.059925567358732224,0.026020482182502747,0.029705386608839035,0.041236717253923416,-0.15123553574085236,-0.24129246175289154,0.090649828314781189, 
  /* [45][0][][] */ 0.05464312806725502,0.018219698220491409,0.063556306064128876,0.030784456059336662,0.26420113444328308,-0.39538785815238953,0.0086002461612224579,-0.029769465327262878, 
  /* [46][0][][] */ 0.18250004947185516,-0.17615300416946411,-0.0058862357400357723,0.42227494716644287,0.18295927345752716,0.1765882670879364,0.11471254378557205,0.28682816028594971, 
  /* [47][0][][] */ -0.16601285338401794,-0.22994661331176758,0.22065037488937378,0.15802350640296936,-0.10389807820320129,-0.033561553806066513,0.32135200500488281,-0.049204826354980469, 
};
const TfArray<4, int> tensor_dimension20 = { 4, { 48,1,1,8 } };
const ALIGN(8) float tensor_data21[8*1*1*48] = { 
  /* [0][0][][] */ -0.070203617215156555,-0.15602310001850128,-0.037380773574113846,-0.23665732145309448,0.024009769782423973,-0.13152669370174408,0.2947714626789093,0.25584736466407776,-0.23651823401451111,-0.29619511961936951,-0.10027571022510529,0.070062249898910522,-0.13330486416816711,-0.043539054691791534,-0.21166795492172241,0.11884903907775879,-0.25982910394668579,0.08586738258600235,-0.015573638491332531,0.31541013717651367,0.17202542722225189,-0.073736891150474548,0.11785856634378433,0.29913592338562012,0.2090238481760025,0.24591894447803497,0.11407473683357239,-0.089271821081638336,-0.25326588749885559,-0.18400837481021881,-0.19794921576976776,-0.19684898853302002,-0.1656889021396637,0.29155579209327698,0.17599102854728699,-0.11279088258743286,0.058610763400793076,-0.035227064043283463,0.21961292624473572,-0.0063420291990041733,0.18099573254585266,0.043366197496652603,0.082995504140853882,-0.25932249426841736,0.1347971111536026,-0.12488168478012085,-0.13411694765090942,-0.21159267425537109, 
  /* [1][0][][] */ 0.028638029471039772,0.18638503551483154,-0.13527603447437286,-0.14536912739276886,-0.32017415761947632,0.21271724998950958,-0.14638528227806091,-0.21553027629852295,-0.18338233232498169,0.20955540239810944,-0.091050446033477783,-0.0028944804798811674,0.15503358840942383,0.12645922601222992,-0.16666671633720398,-0.084529578685760498,-0.09673309326171875,-0.46921977400779724,0.36884361505508423,-0.21146745979785919,0.46588006615638733,-0.0082373851910233498,-0.32182362675666809,0.079232208430767059,0.23908016085624695,0.016275262460112572,-0.37018698453903198,0.28758350014686584,0.076643571257591248,0.060943376272916794,0.21505245566368103,0.21726496517658234,-0.12686148285865784,-0.11697877943515778,-0.010529982857406139,-0.12407545000314713,0.05282297357916832,0.55355149507522583,-0.079163171350955963,-0.17633472383022308,0.32932725548744202,0.17632341384887695,0.067779660224914551,0.060460131615400314,0.45722463726997375,0.17595025897026062,-0.22670432925224304,0.19183927774429321, 
  /* [2][0][][] */ -0.1166868582367897,-0.17460578680038452,0.50270479917526245,0.085539333522319794,0.37932151556015015,-0.22991237044334412,-0.063759781420230865,0.073740646243095398,-0.12676301598548889,-0.071950241923332214,-0.072242997586727142,0.14905010163784027,0.014607151038944721,-0.14921565353870392,-0.17628189921379089,-0.70256257057189941,-0.20201021432876587,-0.53524655103683472,-0.21369719505310059,0.11684177815914154,-0.55166709423065186,0.0068644285202026367,-0.15155947208404541,-0.16959770023822784,-0.29342818260192871,0.092992842197418213,-0.054272495210170746,-0.16544882953166962,-0.2498643547296524,0.18167793750762939,-0.20635351538658142,0.030828293412923813,0.0059733381494879723,-0.075737908482551575,0.080548942089080811,-0.074964247643947601,0.1042325496673584,-0.14931093156337738,-0.17068196833133698,0.033615380525588989,0.23419263958930969,-0.091812312602996826,0.17920540273189545,-0.19359192252159119,-0.35433968901634216,-0.15325745940208435,-0.27968871593475342,-0.32984724640846252, 
  /* [3][0][][] */ 0.28583556413650513,0.1584404855966568,0.26811614632606506,0.12483953684568405,0.15525217354297638,-0.0013664909638464451,0.10485368967056274,0.32715919613838196,-0.17320279777050018,-0.028553912416100502,0.23088046908378601,-0.11241381615400314,-0.20438505709171295,0.28810980916023254,0.0031646979041397572,0.26763540506362915,0.16251669824123383,0.16211546957492828,-0.10508061200380325,0.10485764592885971,-0.41015014052391052,-0.19927726686000824,0.42182627320289612,0.060955159366130829,0.12026813626289368,-0.025565797463059425,-0.25755339860916138,0.015925683081150055,-0.12798929214477539,0.22878561913967133,0.52938079833984375,-0.3051324188709259,-0.011997237801551819,-0.36845564842224121,-0.17698970437049866,0.20701552927494049,-0.074101187288761139,-0.22761803865432739,-0.10302723199129105,0.21069765090942383,-0.33003097772598267,-0.28962421417236328,0.30757087469100952,0.027910813689231873,-0.28611081838607788,-0.33230558037757874,0.32149767875671387,-0.010166597552597523, 
  /* [4][0][][] */ 0.29067382216453552,-0.15732954442501068,0.46032977104187012,-0.12898553907871246,-0.010114835575222969,-0.17598013579845428,0.0076155415736138821,0.018334664404392242,-0.35790529847145081,-0.11125259101390839,-0.059985138475894928,-0.076190218329429626,0.18424393236637115,-0.42086109519004822,0.24712315201759338,-0.6205255389213562,0.24970652163028717,0.24932073056697845,0.05235106498003006,-0.20359991490840912,0.10665339231491089,0.17703117430210114,0.13848866522312164,0.097236014902591705,0.0077680447138845921,0.040725726634263992,0.40752419829368591,-0.043950546532869339,0.15579470992088318,0.28679895401000977,-0.6840207576751709,-0.015214806422591209,-0.082709446549415588,-0.14018060266971588,0.033848408609628677,-0.044350013136863708,0.32991933822631836,-0.01202022098004818,0.23244832456111908,-0.083502233028411865,-0.19383028149604797,0.014421801082789898,-0.35423740744590759,0.13797926902770996,0.030387282371520996,-0.51820468902587891,-0.095091111958026886,0.20361720025539398, 
  /* [5][0][][] */ 0.2961193323135376,-0.31068435311317444,0.26878458261489868,0.10506419092416763,0.26953697204589844,0.14483703672885895,0.11153590679168701,-0.13081766664981842,-0.44410529732704163,-0.01866426132619381,-0.24199312925338745,0.16090191900730133,0.1374904066324234,-0.01210776437073946,0.0070320852100849152,-0.33199766278266907,0.50634181499481201,0.37663733959197998,-0.11887695640325546,-0.096768088638782501,0.48221710324287415,-0.54826533794403076,0.65174251794815063,-0.59711235761642456,-0.23988677561283112,0.2338387668132782,-0.079207688570022583,0.16512282192707062,-0.056737300008535385,-0.081832125782966614,-0.23705288767814636,-0.20477384328842163,-0.20506876707077026,-0.2435845285654068,-0.27677148580551147,0.015939397737383842,0.20115293562412262,0.051673769950866699,0.28714707493782043,-0.057759467512369156,-0.41970431804656982,0.0015126139624044299,0.17236156761646271,0.19459152221679688,0.084395252168178558,-0.060858700424432755,0.42849966883659363,-0.073571190237998962, 
  /* [6][0][][] */ -0.19200180470943451,0.095546096563339233,-0.41758313775062561,0.32305732369422913,0.20351991057395935,0.0429583340883255,0.10312766581773758,0.058840040117502213,-0.10394777357578278,-0.12762044370174408,0.19171623885631561,-0.22431780397891998,-0.31586599349975586,-0.029536491259932518,-0.053951110690832138,0.10074364393949509,-0.40485739707946777,0.072348862886428833,-0.075068861246109009,0.37833094596862793,-0.01782645657658577,0.13278350234031677,-0.22210855782032013,-0.38356620073318481,-0.099851362407207489,-0.15578050911426544,0.023137690499424934,0.2584223747253418,-0.091922998428344727,-0.10580626875162125,-0.16194263100624084,0.076933331787586212,0.073960036039352417,0.27443623542785645,-0.23381721973419189,0.035527106374502182,-0.0051570544019341469,-0.093040876090526581,0.21134604513645172,-0.01630852185189724,0.29860365390777588,0.20708388090133667,-0.42480111122131348,-0.14717945456504822,-0.17626231908798218,0.37336498498916626,-0.16874447464942932,-0.20629118382930756, 
  /* [7][0][][] */ 0.11445136368274689,0.28565153479576111,-0.23141156136989594,-0.0026118585374206305,-0.032448448240756989,0.25380644202232361,0.45794227719306946,0.21021346747875214,0.12861102819442749,0.34142711758613586,-0.37989220023155212,-0.020883642137050629,-0.25541695952415466,-0.0015370175242424011,-0.22759349644184113,-0.24159054458141327,0.14306023716926575,0.065212242305278778,0.56694096326828003,0.38003373146057129,0.28473815321922302,0.023459989577531815,0.49419492483139038,0.05401129275560379,0.45220696926116943,0.48832404613494873,-0.14150258898735046,0.3756309449672699,-0.15842434763908386,0.10254982113838196,-0.1315358579158783,-0.25347232818603516,0.14449334144592285,-0.35143277049064636,0.066676750779151917,-0.035016246140003204,-0.060458999127149582,0.34543049335479736,-0.18604293465614319,0.30698618292808533,-0.39249503612518311,0.24055896699428558,-0.11691685020923615,-0.2944183349609375,0.36070457100868225,-0.080888308584690094,0.15415146946907043,-0.10957822203636169, 
};
const TfArray<4, int> tensor_dimension21 = { 4, { 8,1,1,48 } };
const ALIGN(8) float tensor_data22[48*1*1*8] = { 
  /* [0][0][][] */ 0.19703398644924164,0.10378102958202362,0.29180094599723816,-0.10038614273071289,0.2315860390663147,0.23967672884464264,-0.21781527996063232,-0.1404833048582077, 
  /* [1][0][][] */ 0.084104932844638824,-0.257181316614151,-0.28470134735107422,-0.011046317405998707,0.18241192400455475,-0.0053134546615183353,0.047071073204278946,0.0075029460713267326, 
  /* [2][0][][] */ -0.5306396484375,0.049590744078159332,-0.17757651209831238,-0.061532948166131973,0.22591531276702881,0.09961383044719696,-0.23282405734062195,-0.097490504384040833, 
  /* [3][0][][] */ 0.065057352185249329,0.12658359110355377,0.25747796893119812,-0.19668321311473846,-0.054767359048128128,-0.24081708490848541,0.036485634744167328,-0.094465151429176331, 
  /* [4][0][][] */ -0.29882475733757019,0.11104591935873032,-0.12721939384937286,-0.082840733230113983,0.081802092492580414,0.031341366469860077,-0.11718954145908356,-0.17380999028682709, 
  /* [5][0][][] */ -0.22616302967071533,0.082193627953529358,-0.061731792986392975,-0.094752214848995209,-0.0068275751546025276,0.096670560538768768,-0.16517867147922516,-0.2883160412311554, 
  /* [6][0][][] */ -0.094888895750045776,-0.17924958467483521,-0.20080873370170593,0.086620151996612549,0.15749819576740265,0.06159638985991478,0.005984453484416008,0.098969206213951111, 
  /* [7][0][][] */ -0.14744719862937927,-0.22046449780464172,-0.22096115350723267,-0.24320928752422333,-0.12822394073009491,-0.21807117760181427,-0.0064413961954414845,0.22417573630809784, 
  /* [8][0][][] */ 0.17980813980102539,0.1303013414144516,-0.12377914786338806,0.027183478698134422,0.24281536042690277,-0.19579398632049561,-0.33720159530639648,0.10596794635057449, 
  /* [9][0][][] */ -0.068844407796859741,0.11641138046979904,-0.14073590934276581,0.19542126357555389,-0.14454303681850433,-0.13957144320011139,0.37023714184761047,-0.093273565173149109, 
  /* [10][0][][] */ -0.084186665713787079,0.46806585788726807,0.083726160228252411,0.14153550565242767,0.47422617673873901,-0.14258790016174316,-0.0070333508774638176,0.17608633637428284, 
  /* [11][0][][] */ -0.14009910821914673,-0.045148521661758423,-0.068275272846221924,0.023329887539148331,-0.12201448529958725,0.17138433456420898,0.19007422029972076,-0.0020038150250911713, 
  /* [12][0][][] */ 0.26921677589416504,0.1806674599647522,-0.41419368982315063,0.1217469796538353,0.014139597304165363,-0.15496978163719177,-0.33714857697486877,0.0083353957161307335, 
  /* [13][0][][] */ 0.13269805908203125,-0.060585565865039825,-0.26100462675094604,0.082579009234905243,0.083678901195526123,-0.34458136558532715,-0.10149454325437546,-0.023010754957795143, 
  /* [14][0][][] */ 0.12154271453619003,-0.15264087915420532,0.13387309014797211,-0.0099102603271603584,0.27435466647148132,-0.37740045785903931,-0.14268292486667633,0.046407338231801987, 
  /* [15][0][][] */ -0.063767962157726288,-0.033921238034963608,-0.027025442570447922,0.14981661736965179,0.089573636651039124,0.10669068247079849,-0.07506435364484787,0.064972773194313049, 
  /* [16][0][][] */ 0.27825760841369629,0.039983771741390228,-0.066519081592559814,-0.03429049625992775,0.27901682257652283,-0.29125502705574036,-0.26864674687385559,-0.047700591385364532, 
  /* [17][0][][] */ 0.098404891788959503,0.38707098364830017,0.16516244411468506,0.23376636207103729,0.073575258255004883,0.20834393799304962,0.060158554464578629,-0.27371355891227722, 
  /* [18][0][][] */ 0.05146445706486702,-0.01837451383471489,0.015484689734876156,-0.0056682643480598927,0.21876309812068939,0.0019554197788238525,0.01585894450545311,-0.047339349985122681, 
  /* [19][0][][] */ -0.0015849648043513298,0.28449952602386475,0.094510547816753387,0.046335801482200623,-0.31035444140434265,0.10239791870117188,0.090347006916999817,-0.044937506318092346, 
  /* [20][0][][] */ -0.1132386103272438,0.042167674750089645,0.30234146118164062,-0.47003316879272461,0.17704832553863525,0.13764411211013794,-0.048947803676128387,0.41655755043029785, 
  /* [21][0][][] */ -0.053238354623317719,0.16925689578056335,0.18381661176681519,-0.43420052528381348,0.079073473811149597,0.11577725410461426,-0.05615517869591713,0.33236271142959595, 
  /* [22][0][][] */ -0.22020880877971649,-0.19642002880573273,-0.1581626683473587,-0.0054707378149032593,-0.30043762922286987,0.29704976081848145,0.28676420450210571,-0.099887877702713013, 
  /* [23][0][][] */ 0.26724311709403992,0.091835096478462219,-0.25087863206863403,0.05882200226187706,0.060574211180210114,-0.1246156319975853,-0.13415148854255676,-0.047049332410097122, 
  /* [24][0][][] */ -0.1697746068239212,0.16481076180934906,-0.013967021368443966,0.0021741834934800863,-0.10317009687423706,0.14618983864784241,-0.27234417200088501,0.21547260880470276, 
  /* [25][0][][] */ -0.23553502559661865,-0.13431054353713989,-0.36085414886474609,0.029673086479306221,-0.091823138296604156,-0.18447417020797729,0.1318497359752655,0.24653065204620361, 
  /* [26][0][][] */ 0.12177019566297531,-0.026572752743959427,-0.07505808025598526,-0.13624107837677002,0.21964554488658905,-0.070558823645114899,0.3237132728099823,-0.15121123194694519, 
  /* [27][0][][] */ 0.26962310075759888,-0.22225385904312134,0.08879707008600235,0.16797128319740295,0.065784640610218048,0.083433166146278381,-0.037661761045455933,0.30373793840408325, 
  /* [28][0][][] */ 0.10768946260213852,0.055482566356658936,0.086586780846118927,-0.023753277957439423,0.16276086866855621,-0.052581358700990677,0.075220562517642975,-0.072465740144252777, 
  /* [29][0][][] */ -0.027325354516506195,-0.00076982658356428146,-0.064523108303546906,-0.064743548631668091,-0.21537536382675171,0.065851598978042603,0.27077069878578186,-0.030094467103481293, 
  /* [30][0][][] */ 0.024399114772677422,-0.31217169761657715,-0.044083531945943832,-0.2069229930639267,-0.31674882769584656,0.053362298756837845,0.10153336077928543,-0.17611667513847351, 
  /* [31][0][][] */ -0.0073083941824734211,0.075235031545162201,0.0027678289916366339,-0.041266780346632004,-0.23137050867080688,-0.011040371842682362,-0.055886078625917435,-0.050054267048835754, 
  /* [32][0][][] */ 0.093264013528823853,-0.18496109545230865,-0.09263899177312851,0.1980559378862381,-0.058955013751983643,-0.18410037457942963,0.2796369194984436,-0.28364786505699158, 
  /* [33][0][][] */ 0.147764652967453,0.31491222977638245,0.16234248876571655,0.087369710206985474,0.14187803864479065,-0.11391910910606384,-0.12161056697368622,-0.056665744632482529, 
  /* [34][0][][] */ -0.14485889673233032,-0.14795330166816711,0.23880989849567413,0.026087019592523575,0.0090511571615934372,0.20123772323131561,0.19926226139068604,0.084760561585426331, 
  /* [35][0][][] */ -0.01363587100058794,0.23203136026859283,0.25178039073944092,-0.024939283728599548,-0.14742685854434967,-0.26696100831031799,-0.090034976601600647,0.083324842154979706, 
  /* [36][0][][] */ -0.29749515652656555,0.041998770087957382,0.21419192850589752,0.017056750133633614,-0.14874430000782013,0.3468741774559021,0.19568504393100739,0.090735897421836853, 
  /* [37][0][][] */ -0.071812152862548828,-0.20217479765415192,-0.06734660267829895,-0.45915445685386658,-0.16024467349052429,-0.25727912783622742,0.17432394623756409,0.16887815296649933, 
  /* [38][0][][] */ 0.063982017338275909,-0.046089790761470795,0.16840335726737976,-0.11079408973455429,0.12636896967887878,0.13068696856498718,-0.27872836589813232,0.019571626558899879, 
  /* [39][0][][] */ -0.030017118901014328,0.18226872384548187,-0.22015072405338287,-0.066089510917663574,-0.011952442117035389,-0.043006259948015213,-0.048103403300046921,0.14811840653419495, 
  /* [40][0][][] */ 0.12129020690917969,-0.1063755601644516,0.03015897236764431,0.1178513690829277,-0.023127952590584755,0.048129908740520477,0.026235612109303474,0.36619767546653748, 
  /* [41][0][][] */ -0.11607378721237183,0.066434532403945923,0.19668981432914734,-0.057142194360494614,-0.018857447430491447,0.071429535746574402,-0.16100007295608521,-0.020758859813213348, 
  /* [42][0][][] */ 0.11626283079385757,-0.24154594540596008,-0.18942664563655853,-0.05728481337428093,-0.29614269733428955,0.027740098536014557,0.053023930639028549,-0.18210142850875854, 
  /* [43][0][][] */ 0.029651418328285217,-0.19751466810703278,0.15009929239749908,-0.089547730982303619,0.30054673552513123,-0.065055668354034424,-0.065252095460891724,0.14788123965263367, 
  /* [44][0][][] */ -0.029182756319642067,0.20380692183971405,0.21578788757324219,-0.04235345870256424,-0.013373271562159061,-0.027752339839935303,-0.0480695441365242,-0.03035312332212925, 
  /* [45][0][][] */ -0.081194140017032623,0.13674993813037872,0.028247799724340439,0.13905459642410278,-0.26445591449737549,0.096549496054649353,-0.28536033630371094,0.08462873101234436, 
  /* [46][0][][] */ -0.15992633998394012,-0.07495059072971344,0.08557707816362381,0.19854149222373962,-0.41254386305809021,-0.32844766974449158,-0.10715913772583008,0.037516072392463684, 
  /* [47][0][][] */ -0.0040886886417865753,0.10932544618844986,0.17579670250415802,-0.31417495012283325,-0.24537697434425354,0.040919229388237,-0.057846583425998688,0.17430168390274048, 
};
const TfArray<4, int> tensor_dimension22 = { 4, { 48,1,1,8 } };
const ALIGN(8) float tensor_data23[16*1*1*48] = { 
  /* [0][0][][] */ 0.11050482839345932,0.091782122850418091,-0.05187680572271347,-0.094359844923019409,0.31039118766784668,0.31196421384811401,-0.12136559188365936,0.21999068558216095,-0.094387605786323547,0.47376155853271484,0.031540248543024063,0.21568028628826141,-0.12246228754520416,0.22488613426685333,-0.089199461042881012,0.20786949992179871,0.18063397705554962,0.41534289717674255,0.28502342104911804,-0.29949414730072021,-0.26288050413131714,0.33224073052406311,0.091744281351566315,0.29858192801475525,0.13737893104553223,0.24400293827056885,0.12174022197723389,0.20529204607009888,-0.25788149237632751,-0.38055741786956787,0.0075553348287940025,0.4227137565612793,-0.080901116132736206,0.0047199106775224209,-0.15631985664367676,0.18563225865364075,0.20922684669494629,-0.43611401319503784,-0.093331880867481232,0.12131588906049728,0.039077620953321457,-0.15887489914894104,0.4032956063747406,0.043595001101493835,-0.082183592021465302,-0.13240757584571838,-0.29644373059272766,-0.066351927816867828, 
  /* [1][0][][] */ -0.22735626995563507,0.07421739399433136,-0.39082154631614685,-0.17671290040016174,0.018521822988986969,0.3343365490436554,-0.2428499311208725,0.065913304686546326,-0.14475378394126892,-0.13925313949584961,-0.16951531171798706,0.16917110979557037,0.3250865638256073,-0.094870217144489288,-0.16325293481349945,-0.13959097862243652,-0.051647312939167023,-0.16773016750812531,0.054154898971319199,0.066164948046207428,-0.20172131061553955,0.14498931169509888,-0.42369002103805542,-0.12672796845436096,-0.26737496256828308,-0.17866562306880951,0.21365627646446228,0.23899684846401215,-0.14987283945083618,-0.19098673760890961,0.21384280920028687,-0.14161796867847443,0.02494317851960659,-0.17425091564655304,-0.11670156568288803,0.21050985157489777,0.021970644593238831,-0.24277681112289429,0.63210141658782959,-0.1149028018116951,-0.19221237301826477,0.10725603252649307,-0.17016702890396118,-0.027235941961407661,0.16885814070701599,0.27557513117790222,0.14902831614017487,0.034667778760194778, 
  /* [2][0][][] */ -0.11760765314102173,-0.075675375759601593,0.32510128617286682,-0.11195625364780426,-0.12797755002975464,-0.40000998973846436,0.17511199414730072,-0.044362600892782211,0.46925652027130127,0.44498017430305481,-0.41160273551940918,0.10648205131292343,0.4071730375289917,-0.2365909069776535,0.51188385486602783,0.42453306913375854,-0.38824400305747986,-0.092614635825157166,-0.16087640821933746,0.22976867854595184,0.29517918825149536,-0.35871103405952454,-0.24633154273033142,-0.3576643168926239,0.15783634781837463,-0.033510874956846237,0.22575405240058899,-0.31956273317337036,0.12090075761079788,0.26234790682792664,-0.24653090536594391,0.053784321993589401,0.0962180495262146,-0.22171598672866821,0.21604596078395844,0.18745812773704529,-0.22005285322666168,0.017562512308359146,0.097184918820858002,0.0086354687809944153,0.22290559113025665,0.077910900115966797,0.26227995753288269,-0.12789995968341827,0.094103075563907623,-0.38702434301376343,0.38463515043258667,-0.23749931156635284, 
  /* [3][0][][] */ 0.12099805474281311,0.02013312466442585,-0.060895144939422607,-0.0063286339864134789,0.1638437956571579,0.72074836492538452,0.10316735506057739,0.064073652029037476,0.20671434700489044,-0.40405231714248657,0.26855438947677612,0.039547063410282135,-0.14988496899604797,0.045835398137569427,-0.044085230678319931,0.22369480133056641,-0.057752922177314758,-0.2962816059589386,0.062284462153911591,-0.84049701690673828,0.069594740867614746,0.033574819564819336,-0.06036798283457756,-0.18063415586948395,-0.19156526029109955,0.38040900230407715,0.70015567541122437,0.44329586625099182,0.086189880967140198,-0.18262644112110138,0.13934177160263062,0.27123522758483887,0.45787343382835388,-0.067907743155956268,0.47842136025428772,0.096133619546890259,-0.26627245545387268,-0.33246910572052002,0.080451555550098419,0.070601657032966614,0.15064428746700287,0.065496921539306641,-0.078070037066936493,0.037614725530147552,0.26704061031341553,0.13842862844467163,-0.10793706774711609,-0.14573946595191956, 
  /* [4][0][][] */ 0.31526744365692139,0.022544393315911293,-0.0090475007891654968,-0.22729900479316711,0.40048140287399292,0.37038496136665344,0.1156093031167984,0.073239699006080627,0.32232430577278137,0.03108784556388855,-0.24441076815128326,0.059318825602531433,0.18786975741386414,-0.038183044642210007,0.10707766562700272,-0.12314821779727936,-0.31429558992385864,-0.34147769212722778,-0.13729223608970642,-0.36374101042747498,-0.0073831514455378056,0.13277041912078857,-0.14581122994422913,-0.071580685675144196,-0.37619909644126892,0.40463721752166748,-0.47891446948051453,0.49614420533180237,-0.16302506625652313,-0.090959317982196808,0.1563350111246109,0.26187646389007568,0.070102393627166748,-0.141069695353508,0.14588190615177155,0.014461137354373932,-0.17061607539653778,0.1955905556678772,-0.087486609816551208,0.099619507789611816,-0.1144115999341011,-0.0056576477363705635,-0.070088662207126617,0.26712611317634583,-0.12789210677146912,0.45912173390388489,-0.16389614343643188,-0.13438969850540161, 
  /* [5][0][][] */ -0.05205080658197403,0.010026516392827034,-0.31534060835838318,0.058514982461929321,-0.16760663688182831,0.28559392690658569,0.090686440467834473,-0.19809626042842865,0.24625393748283386,0.22506323456764221,0.14433029294013977,0.41065299510955811,0.2083050012588501,-0.12259333580732346,0.096545316278934479,-0.031172780320048332,-0.15023535490036011,0.55081194639205933,-0.030783839523792267,0.11383294314146042,0.084650911390781403,0.0020141410641372204,-0.26197528839111328,-0.020544199272990227,0.14685055613517761,0.085278570652008057,-0.25537192821502686,-0.16774517297744751,-0.029939712956547737,0.17175941169261932,0.10460706055164337,-0.010122779756784439,-0.12758712470531464,-0.035615056753158569,0.17586825788021088,0.076412461698055267,-0.20752531290054321,0.059520076960325241,-0.26884689927101135,0.14392921328544617,0.37658903002738953,0.023756595328450203,0.092386364936828613,0.22798331081867218,-0.012035464867949486,0.074903599917888641,-0.21528659760951996,0.18635860085487366, 
  /* [6][0][][] */ 0.1079644188284874,-0.011802156455814838,0.072239808738231659,0.34397521615028381,-0.0032022341620177031,-0.11285455524921417,0.323344886302948,-0.16375100612640381,-0.081483952701091766,0.19009248912334442,0.30897638201713562,0.284931480884552,0.053339924663305283,0.12313525378704071,-0.17256280779838562,0.22566644847393036,0.035212047398090363,-0.18889427185058594,-0.12756882607936859,0.22627176344394684,0.2229861319065094,-0.27978265285491943,-0.1064622551202774,0.18040986359119415,-0.22481110692024231,0.28885811567306519,0.30126315355300903,-0.010799490846693516,0.30583673715591431,0.069834604859352112,-0.192744180560112,0.059891451150178909,0.31935092806816101,-0.2536952793598175,-0.35594955086708069,-0.051122639328241348,0.29289492964744568,0.023841561749577522,-0.00986501295119524,0.0071101519279181957,0.017859527841210365,0.11851818859577179,0.1674160361289978,-0.15361975133419037,0.15104785561561584,0.36416321992874146,-0.027212699875235558,-0.094938896596431732, 
  /* [7][0][][] */ -0.28686735033988953,-0.049972988665103912,-0.090483121573925018,0.032918393611907959,-0.10090290009975433,-0.059699185192584991,0.096396289765834808,0.1208764836192131,0.31071791052818298,0.29196691513061523,-0.1713317334651947,-0.28398919105529785,-0.19752979278564453,0.021841168403625488,0.033922478556632996,-0.072197690606117249,-0.25671601295471191,0.35273182392120361,0.015951523557305336,0.28346258401870728,-0.14498037099838257,0.21374955773353577,0.054257661104202271,0.0564742311835289,-0.10406331717967987,-0.21690231561660767,-0.16076040267944336,-0.19044457376003265,0.11469493061304092,0.092844419181346893,-0.042133476585149765,0.084148980677127838,-0.010042635723948479,0.046763621270656586,0.022836834192276001,-0.014589101076126099,-0.044489406049251556,-0.076151072978973389,0.30838996171951294,0.015819041058421135,0.11432253569364548,0.10484122484922409,0.037515640258789062,0.032325264066457748,0.17495626211166382,0.28622356057167053,-0.15615081787109375,0.047431766986846924, 
  /* [8][0][][] */ -0.089731879532337189,-0.23655197024345398,0.14408494532108307,-0.19291785359382629,0.22061675786972046,-0.0987076535820961,0.17568917572498322,-0.087713249027729034,-0.060320291668176651,-0.29850378632545471,0.069463878870010376,0.0324406698346138,-0.10130705684423447,-0.033992014825344086,0.048058208078145981,0.13370212912559509,-0.018268296495079994,0.00086961954366415739,-0.1235027015209198,0.31875747442245483,0.025391735136508942,0.14707034826278687,-0.074319526553153992,0.073602758347988129,0.25218662619590759,0.013311050832271576,-0.20837967097759247,-0.018922500312328339,-0.39484426379203796,-0.1215301975607872,-0.21337680518627167,-0.34919863939285278,0.021935207769274712,-0.24524030089378357,0.04677639901638031,0.25541982054710388,0.014405370689928532,0.089058615267276764,0.37219390273094177,0.12580859661102295,0.11687245219945908,-0.10544665157794952,0.21363005042076111,0.33118146657943726,-0.024085244163870811,-0.22772935032844543,-0.1713702529668808,0.32399338483810425, 
  /* [9][0][][] */ 0.10135074704885483,-0.089687824249267578,0.010815592482686043,-0.24147918820381165,0.056367009878158569,0.2893536388874054,-0.19398000836372375,0.20941492915153503,0.13456264138221741,-0.17339585721492767,-0.084404893219470978,-0.14360581338405609,0.070584163069725037,-0.092891529202461243,0.40552905201911926,-0.13170526921749115,-0.006805849727243185,-0.40692773461341858,0.087538793683052063,0.11433424055576324,-0.2334025502204895,0.12445609271526337,0.26068368554115295,-0.078233063220977783,-0.13243554532527924,-0.3701481819152832,-0.078394152224063873,0.18064546585083008,0.25507983565330505,0.28128179907798767,-0.049536146223545074,-0.058270353823900223,-0.22299076616764069,0.13834567368030548,0.030597306787967682,0.58821868896484375,-0.21032816171646118,-0.12781037390232086,-0.15731598436832428,-0.093844607472419739,-0.15068230032920837,0.037092909216880798,0.14956748485565186,0.41434860229492188,0.23375989496707916,0.30881950259208679,-0.14072215557098389,0.071242623031139374, 
  /* [10][0][][] */ -0.11084569990634918,0.18420231342315674,-0.20863868296146393,-0.032393738627433777,0.09970875084400177,0.18595238029956818,-0.30659985542297363,-0.10000710189342499,0.27216899394989014,0.19407409429550171,0.29179307818412781,-0.10501217097043991,-0.18084770441055298,0.05018128827214241,0.25048243999481201,-0.22387978434562683,-0.33370727300643921,0.57643693685531616,0.057414241135120392,0.14052031934261322,0.059310480952262878,-0.099836148321628571,0.1557205468416214,0.16930702328681946,-0.25653749704360962,0.20381896197795868,-0.0098792789503931999,0.54653292894363403,0.12299000471830368,-0.027526808902621269,-0.15775707364082336,0.015231561847031116,0.27756693959236145,0.068478621542453766,0.071908265352249146,0.065863676369190216,-0.12341602146625519,-0.22087560594081879,-0.11450430005788803,0.12537230551242828,-0.38001564145088196,-0.036561116576194763,0.17079263925552368,-0.060434211045503616,0.18314635753631592,0.23398232460021973,0.11864844709634781,0.096536770462989807, 
  /* [11][0][][] */ -0.1427408754825592,0.18723367154598236,-0.12516742944717407,0.12796477973461151,-0.033123988658189774,0.20841799676418304,0.048296451568603516,0.0586196668446064,0.12864723801612854,0.079438850283622742,-0.40539833903312683,-0.27847480773925781,0.20292727649211884,0.099424712359905243,-0.068565361201763153,-0.11204325407743454,-0.02001909539103508,0.064819619059562683,-0.2268110066652298,-0.14847566187381744,-0.0012273502070456743,-0.035679534077644348,0.3829464316368103,0.04967217892408371,0.17788819968700409,0.11342956125736237,-0.0028064188081771135,0.013953127898275852,-0.056711774319410324,0.074890658259391785,-0.013980712741613388,0.18065227568149567,0.085563741624355316,0.024934036657214165,-0.13203004002571106,-0.010239300318062305,0.097205765545368195,0.23109729588031769,0.35613223910331726,0.12153162062168121,0.17191386222839355,-0.079507514834403992,0.23536789417266846,-0.029994301497936249,-0.22318170964717865,-0.080696254968643188,0.30254337191581726,-0.024046355858445168, 
  /* [12][0][][] */ -0.2570655345916748,0.071720071136951447,0.045955721288919449,0.0988021120429039,-0.15235801041126251,-0.18198868632316589,-0.05603620782494545,0.048164546489715576,-0.13085563480854034,-0.16660034656524658,-0.32111170887947083,0.025602281093597412,0.23731927573680878,-0.28028577566146851,0.040103822946548462,0.064954400062561035,0.18245704472064972,0.31025463342666626,0.33106210827827454,-0.43478512763977051,-0.020993119105696678,0.13636212050914764,-0.082062199711799622,-0.22364558279514313,-0.045992214232683182,-0.13869880139827728,0.11301344633102417,-0.039129611104726791,0.05289020761847496,0.029301319271326065,-0.01990780420601368,0.28493961691856384,0.20348837971687317,0.24904631078243256,0.16281478106975555,-0.059183966368436813,-0.21839793026447296,-0.074618823826313019,0.17672643065452576,-0.022138733416795731,-0.18193390965461731,0.16169023513793945,0.22516366839408875,0.019530367106199265,0.18779391050338745,0.029155977070331573,-0.19843019545078278,-0.12697800993919373, 
  /* [13][0][][] */ -0.11096000671386719,-0.34271466732025146,-0.19548101723194122,-0.2264232337474823,-0.070588722825050354,0.039289209991693497,0.16973640024662018,0.087827727198600769,-0.38350111246109009,-0.030551040545105934,0.45055612921714783,-0.30006846785545349,0.089865967631340027,0.21797303855419159,0.41919603943824768,-0.031073072925209999,0.23918740451335907,0.071245603263378143,0.037246949970722198,-0.34588107466697693,0.24390831589698792,-0.41502863168716431,0.424897700548172,0.073308907449245453,-0.39092770218849182,-0.07255437970161438,-0.038551043719053268,-0.12245585769414902,-0.077090248465538025,-0.27447241544723511,-0.28297257423400879,0.089872345328330994,0.12495320290327072,-0.044793747365474701,-0.22539143264293671,0.10019933432340622,0.022664610296487808,-0.19791659712791443,0.19044388830661774,-0.36458900570869446,-0.088277943432331085,0.24506311118602753,0.15597997605800629,0.0705128014087677,0.16534291207790375,-0.11815810948610306,0.36816886067390442,-0.34634798765182495, 
  /* [14][0][][] */ 0.23056584596633911,0.10956329107284546,-0.14870035648345947,-0.027269124984741211,-0.038336537778377533,0.083515875041484833,-0.2817707359790802,-0.0044148252345621586,-0.020043278113007545,0.14658094942569733,0.21885466575622559,0.18646232783794403,0.022091494873166084,-0.1565978080034256,-0.041873656213283539,-0.14836621284484863,0.21871951222419739,-0.29623407125473022,0.10667245835065842,0.018590779975056648,0.26654729247093201,-0.17856323719024658,0.097663529217243195,0.027338523417711258,-0.047397375106811523,0.31506443023681641,-0.20449084043502808,0.058093801140785217,-0.067959673702716827,-0.14208193123340607,-0.20586593449115753,0.020609753206372261,0.35342597961425781,0.24872645735740662,0.3097568154335022,-0.039903298020362854,-0.27153930068016052,0.052618645131587982,-0.036004092544317245,0.1365082859992981,-0.065326213836669922,-0.16508276760578156,0.34739294648170471,-0.064935155212879181,-0.077038317918777466,-0.1246398538351059,-0.11191359907388687,0.19841137528419495, 
  /* [15][0][][] */ -0.24418441951274872,0.12087836116552353,0.1929105818271637,0.040850859135389328,0.32401198148727417,-0.09845966100692749,-0.070011615753173828,0.052466072142124176,0.061458602547645569,0.39004206657409668,-0.13197621703147888,0.32001364231109619,0.27644428610801697,-0.017610533162951469,-0.18976221978664398,-0.12036359310150146,0.020986344665288925,0.095550566911697388,0.012064072303473949,-0.087617844343185425,0.053590219467878342,-0.15887969732284546,-0.23628152906894684,-0.1675923615694046,0.24136172235012054,-0.28469619154930115,-0.16124437749385834,0.27638828754425049,-0.22256337106227875,0.091558977961540222,0.16819176077842712,-0.04481419175863266,-0.28553041815757751,-0.027879642322659492,0.46087682247161865,0.11605633795261383,-0.33651858568191528,0.084172278642654419,0.2209000438451767,-0.041094299405813217,-0.31625676155090332,-0.13415735960006714,0.068331308662891388,-0.056939497590065002,-0.21077902615070343,-0.22691172361373901,0.032972212880849838,0.11636673659086227, 
};
const TfArray<4, int> tensor_dimension23 = { 4, { 16,1,1,48 } };
const ALIGN(8) float tensor_data24[96*1*1*16] = { 
  /* [0][0][][] */ 0.07037082314491272,-0.16590666770935059,-0.20375938713550568,0.37641945481300354,-0.57760733366012573,-0.15104897320270538,0.25011780858039856,0.11413347721099854,0.0048680943436920643,0.34965085983276367,0.051774416118860245,0.13054801523685455,0.086862452328205109,0.19672186672687531,0.31595730781555176,0.18027402460575104, 
  /* [1][0][][] */ -0.10491523146629333,-0.056716438382863998,-0.053409844636917114,-0.086197011172771454,0.15338799357414246,0.25804159045219421,0.039580274373292923,-0.0041597727686166763,0.006040278822183609,-0.016031581908464432,-0.17401878535747528,-0.012660198844969273,-0.096142672002315521,0.12983432412147522,-0.18828734755516052,-0.053177017718553543, 
  /* [2][0][][] */ -0.074570521712303162,0.48189175128936768,0.49532210826873779,0.19795843958854675,0.2579788863658905,0.37828400731086731,0.21335697174072266,0.1787821501493454,0.30857479572296143,-0.11882110685110092,0.11540855467319489,-0.22639107704162598,0.45745733380317688,-0.73363280296325684,0.075891681015491486,0.033077362924814224, 
  /* [3][0][][] */ 0.65452402830123901,-0.13667070865631104,0.071949802339076996,0.11934088915586472,-0.029526056721806526,0.17331819236278534,0.13112258911132812,-0.0014205446932464838,0.24531099200248718,0.012259223498404026,-0.18082909286022186,-0.02187715657055378,-0.014718499965965748,0.31311404705047607,0.086769789457321167,-0.00070051394868642092, 
  /* [4][0][][] */ -0.12818285822868347,-0.053360998630523682,0.095088683068752289,0.044940300285816193,-0.22931583225727081,-0.025938853621482849,-0.23609595000743866,-0.06914065033197403,0.03480008989572525,0.090213552117347717,-0.14488387107849121,-0.082346729934215546,-0.058599013835191727,0.038258567452430725,-0.12029881030321121,0.20815576612949371, 
  /* [5][0][][] */ -0.04872572049498558,0.00055290828458964825,0.015758972615003586,0.050011791288852692,0.069430157542228699,0.070446401834487915,0.01892436295747757,0.049715075641870499,-0.051100626587867737,-0.020583363249897957,0.013791157864034176,0.042714595794677734,-0.032249573618173599,0.061353825032711029,-0.065947718918323517,-0.0088556855916976929, 
  /* [6][0][][] */ -0.47046282887458801,-0.061497371643781662,-0.16640454530715942,0.092769891023635864,-0.2440188080072403,-0.34891268610954285,0.20426958799362183,-0.021673226729035378,0.11864224821329117,-0.14058621227741241,-0.12825711071491241,0.12384869158267975,-0.067782893776893616,0.072598382830619812,-0.095379576086997986,0.022888507694005966, 
  /* [7][0][][] */ -0.24731086194515228,0.20461057126522064,0.39258772134780884,-0.27348491549491882,0.11167082935571671,0.27628767490386963,0.24122819304466248,0.14040528237819672,0.065113827586174011,-0.07467883825302124,-0.015817822888493538,0.1478726714849472,0.25081780552864075,-0.012408491224050522,-0.29551813006401062,-0.032547060400247574, 
  /* [8][0][][] */ -0.13090240955352783,-0.051023799926042557,-0.14020968973636627,0.17552995681762695,-0.11712660640478134,-0.023585474118590355,-0.045125793665647507,-0.13600735366344452,0.01153754536062479,-0.02242613211274147,0.19598062336444855,-0.021742939949035645,0.21454738080501556,0.20375627279281616,-0.097617372870445251,-0.052482683211565018, 
  /* [9][0][][] */ -0.15331336855888367,-0.37368854880332947,-0.035277269780635834,0.16798481345176697,-0.16250675916671753,-0.17256593704223633,-0.15912196040153503,0.32392770051956177,0.20329937338829041,0.16454239189624786,0.029235079884529114,0.26740080118179321,-0.24132083356380463,-0.046937424689531326,-0.14642241597175598,-0.23069755733013153, 
  /* [10][0][][] */ -0.10786335170269012,-0.055643577128648758,-0.023830845952033997,0.0012197492178529501,-0.22894385457038879,0.031965244561433792,0.08930688351392746,-0.089750982820987701,-0.032948154956102371,-0.11064814031124115,0.070702075958251953,-0.05739666149020195,-0.043953791260719299,0.14955338835716248,-0.058924473822116852,0.051634352654218674, 
  /* [11][0][][] */ -0.16450181603431702,-0.24007622897624969,0.056336622685194016,-0.051480740308761597,-0.038717634975910187,0.049895606935024261,0.15652613341808319,-0.11851929128170013,0.1314573734998703,-0.17683593928813934,-0.032955743372440338,-0.14097167551517487,-0.065105564892292023,0.32354053854942322,-0.13882182538509369,0.21712516248226166, 
  /* [12][0][][] */ -0.25114095211029053,-0.073696732521057129,-0.32235956192016602,0.39490801095962524,-0.35823094844818115,-0.52766209840774536,-0.079478442668914795,0.050291895866394043,0.091971829533576965,0.30642640590667725,0.0070066004991531372,0.40827637910842896,-0.066762231290340424,-0.11931774020195007,0.11327588558197021,0.35983827710151672, 
  /* [13][0][][] */ -0.36081111431121826,-0.049340751022100449,-0.018796375021338463,-0.11698979884386063,-0.024023666977882385,0.15617872774600983,0.09759356826543808,0.18022795021533966,-0.080067947506904602,0.66997897624969482,-0.12796260416507721,-0.13821978867053986,0.099875330924987793,-0.0017919322708621621,-0.1617622971534729,-0.11799796670675278, 
  /* [14][0][][] */ -0.30528107285499573,-0.11177568882703781,-0.16862650215625763,-0.044274643063545227,0.054169762879610062,0.16054710745811462,-0.20767363905906677,-0.14169220626354218,0.2519056499004364,0.0056364475749433041,0.14600867033004761,0.051382765173912048,0.18502031266689301,-0.11265407502651215,-0.36238440871238708,-0.39897903800010681, 
  /* [15][0][][] */ 0.039499763399362564,-0.26033270359039307,0.22738669812679291,-0.15171484649181366,-0.12332545220851898,-0.044347077608108521,0.071535632014274597,0.12909150123596191,0.083959698677062988,-0.19900090992450714,-0.16879808902740479,-0.05008721724152565,0.23353041708469391,-0.17657044529914856,-0.12140162289142609,-0.13216261565685272, 
  /* [16][0][][] */ 0.096008755266666412,-0.0059811961837112904,0.14937476813793182,-0.16897103190422058,0.078975938260555267,0.1130073070526123,-0.083996951580047607,0.046196870505809784,0.31227138638496399,-0.47404763102531433,0.12072908878326416,-0.019444553181529045,0.0088518634438514709,-0.14776112139225006,-0.21966862678527832,-0.36618682742118835, 
  /* [17][0][][] */ 0.030998697504401207,0.11251896619796753,-0.074359118938446045,-0.0019705467857420444,-0.066230148077011108,0.0044942768290638924,0.029291896149516106,0.056949283927679062,0.20843677222728729,-0.25058266520500183,0.21706268191337585,0.2267884761095047,0.36126011610031128,0.037664245814085007,0.080668516457080841,-0.11394395679235458, 
  /* [18][0][][] */ 0.1360614001750946,-0.027134064584970474,-0.0086137820035219193,-0.36627253890037537,-0.12434712052345276,-0.093749746680259705,0.40784725546836853,-0.21388617157936096,-0.027147989720106125,0.067090973258018494,-0.15565727651119232,0.015042364597320557,-0.11268780380487442,0.10287223756313324,-0.037793174386024475,-0.28253871202468872, 
  /* [19][0][][] */ -0.14105340838432312,0.035396493971347809,-0.080493122339248657,-0.16556063294410706,-0.15440498292446136,0.0086744911968708038,-0.0078646373003721237,-0.050407096743583679,0.069632776081562042,-0.097668059170246124,-0.013133624568581581,-0.15410119295120239,-0.010586829856038094,-0.011292790994048119,-0.05443727970123291,0.028404582291841507, 
  /* [20][0][][] */ -0.11440885066986084,0.070174999535083771,0.21974563598632812,-0.3814830482006073,0.28969866037368774,0.095376141369342804,-0.18385845422744751,0.21715594828128815,-0.3802640438079834,-0.34024050831794739,0.10211330652236938,-0.28491833806037903,-0.097121641039848328,0.38502255082130432,-0.16956894099712372,0.0082594174891710281, 
  /* [21][0][][] */ -0.018524168059229851,0.061836615204811096,-0.09404396265745163,-0.044227775186300278,0.084850020706653595,0.095673978328704834,0.17132684588432312,0.097757056355476379,-0.11968973278999329,-0.08828425407409668,-0.05538514256477356,-0.076602429151535034,0.1101602166891098,-0.18539200723171234,-0.10724544525146484,0.081447884440422058, 
  /* [22][0][][] */ 0.34196615219116211,-0.048000779002904892,0.50311869382858276,-0.0048523037694394588,-0.04971163347363472,-0.07706480473279953,0.28098854422569275,0.10112522542476654,0.40432584285736084,0.37472587823867798,0.053103722631931305,0.2472948431968689,0.088341124355792999,-0.13577666878700256,0.51166445016860962,-0.21141879260540009, 
  /* [23][0][][] */ -0.38195046782493591,-0.046333231031894684,-0.06918981671333313,0.087437346577644348,0.26155570149421692,0.32474860548973083,-0.067628480494022369,0.11664631962776184,-0.18666738271713257,0.1066778153181076,0.05820421501994133,-0.32053390145301819,-0.049207445234060287,0.030328528955578804,0.065104067325592041,0.54642981290817261, 
  /* [24][0][][] */ 0.049454230815172195,-0.012642071582376957,0.11296447366476059,0.022911697626113892,0.036842823028564453,-0.19075047969818115,0.066683761775493622,-0.14632025361061096,0.073790222406387329,0.24140346050262451,-0.26926553249359131,0.12748318910598755,-0.017512666061520576,-0.16109415888786316,0.12338384985923767,-0.18193382024765015, 
  /* [25][0][][] */ 0.61234700679779053,0.045912839472293854,0.45608997344970703,0.49282193183898926,0.11079367250204086,-0.074992023408412933,-0.05041218176484108,0.1843201071023941,-0.25873038172721863,0.28612980246543884,0.089822515845298767,-0.32103735208511353,-0.14043353497982025,-0.054385345429182053,0.25644585490226746,-0.29915368556976318, 
  /* [26][0][][] */ -0.015615121461451054,0.051381859928369522,-0.020207241177558899,0.094013795256614685,-0.1031566709280014,0.28473982214927673,-0.038887184113264084,0.10861092060804367,-0.097028881311416626,-0.076024502515792847,-0.20055538415908813,0.081474900245666504,0.05956524983048439,0.025897817686200142,0.11516088992357254,-0.39418822526931763, 
  /* [27][0][][] */ 0.03781517967581749,-0.06196989119052887,-0.013061766512691975,-0.16865544021129608,-0.040725208818912506,-0.012645261362195015,-0.27668225765228271,0.11961666494607925,-0.45289373397827148,-0.087543196976184845,-0.23884813487529755,-0.16463126242160797,-0.249717116355896,0.14610148966312408,-0.10312971472740173,0.3198607861995697, 
  /* [28][0][][] */ -0.23712934553623199,0.023916486650705338,0.12230805307626724,-0.096676446497440338,0.018905285745859146,-0.042871344834566116,-0.34768462181091309,0.035088274627923965,-0.0066094333305954933,-0.0607135109603405,-0.016675654798746109,-0.08735937625169754,0.025668999180197716,-0.23628269135951996,-0.26992851495742798,-0.014853643253445625, 
  /* [29][0][][] */ -0.073334187269210815,-0.36284738779067993,-0.17456263303756714,0.43237897753715515,-0.017228234559297562,0.18979187309741974,0.52439874410629272,0.017091147601604462,0.12310861796140671,0.19185425341129303,-0.42023012042045593,0.20433008670806885,0.27390530705451965,-0.12126161158084869,-0.25770109891891479,0.38467434048652649, 
  /* [30][0][][] */ 0.013362983241677284,-0.077568091452121735,-0.022146085277199745,0.012288243509829044,-0.27041375637054443,0.049381677061319351,0.082210563123226166,-0.022808600217103958,-0.17045734822750092,0.014498033560812473,-0.040689598768949509,-0.15079279243946075,-0.087922133505344391,0.070513881742954254,-0.028799735009670258,0.16365897655487061, 
