/* Generated by Edge Impulse
*
* Permission is hereby granted, free of charge, to any person obtaining a copy
* of this software and associated documentation files (the "Software"), to deal
* in the Software without restriction, including without limitation the rights
* to use, copy, modify, merge, publish, distribute, sublicense, and/or sell
* copies of the Software, and to permit persons to whom the Software is
* furnished to do so, subject to the following conditions:
*
* The above copyright notice and this permission notice shall be included in
* all copies or substantial portions of the Software.
*
* THE SOFTWARE IS PROVIDED "AS IS", WITHOUT WARRANTY OF ANY KIND, EXPRESS OR
* IMPLIED, INCLUDING BUT NOT LIMITED TO THE WARRANTIES OF MERCHANTABILITY,
* FITNESS FOR A PARTICULAR PURPOSE AND NONINFRINGEMENT. IN NO EVENT SHALL THE
* AUTHORS OR COPYRIGHT HOLDERS BE LIABLE FOR ANY CLAIM, DAMAGES OR OTHER
* LIABILITY, WHETHER IN AN ACTION OF CONTRACT, TORT OR OTHERWISE, ARISING FROM,
* OUT OF OR IN CONNECTION WITH THE SOFTWARE OR THE USE OR OTHER DEALINGS IN THE
* SOFTWARE.
*/
// Generated on: 12.01.2021 20:57:09

#include <stdio.h>
#include <stdlib.h>
#include <vector>
#include "edge-impulse-sdk/tensorflow/lite/c/builtin_op_data.h"
#include "edge-impulse-sdk/tensorflow/lite/c/common.h"
#include "edge-impulse-sdk/tensorflow/lite/micro/kernels/micro_ops.h"

#if defined __GNUC__
#define ALIGN(X) __attribute__((aligned(X)))
#elif defined _MSC_VER
#define ALIGN(X) __declspec(align(X))
#elif defined __TASKING__
#define ALIGN(X) __align(X)
#endif

namespace {

constexpr int kTensorArenaSize = 10512;

#if defined(EI_CLASSIFIER_ALLOCATION_STATIC)
uint8_t tensor_arena[kTensorArenaSize] ALIGN(16);
#elif defined(EI_CLASSIFIER_ALLOCATION_STATIC_HIMAX)
#pragma Bss(".tensor_arena")
uint8_t tensor_arena[kTensorArenaSize] ALIGN(16);
#pragma Bss()
#else
#define EI_CLASSIFIER_ALLOCATION_HEAP 1
uint8_t* tensor_arena = NULL;
#endif

static uint8_t* tensor_boundary;
static uint8_t* current_location;

template <int SZ, class T> struct TfArray {
  int sz; T elem[SZ];
};
enum used_operators_e {
  OP_RESHAPE, OP_CONV_2D, OP_ADD, OP_MAX_POOL_2D, OP_FULLY_CONNECTED, OP_SOFTMAX,  OP_LAST
};
struct TensorInfo_t { // subset of TfLiteTensor used for initialization from constant memory
  TfLiteAllocationType allocation_type;
  TfLiteType type;
  void* data;
  TfLiteIntArray* dims;
  size_t bytes;
};
struct NodeInfo_t { // subset of TfLiteNode used for initialization from constant memory
  struct TfLiteIntArray* inputs;
  struct TfLiteIntArray* outputs;
  void* builtin_data;
  used_operators_e used_op_index;
};

TfLiteContext ctx{};
TfLiteTensor tflTensors[31];
TfLiteRegistration registrations[OP_LAST];
TfLiteNode tflNodes[15];

const TfArray<2, int> tensor_dimension0 = { 2, { 1,1274 } };
const ALIGN(8) int32_t tensor_data1[2] = { -1, 400, };
const TfArray<1, int> tensor_dimension1 = { 1, { 2 } };
const ALIGN(8) float tensor_data2[8] = { -0.72273051738739014, -1.0009276866912842, -1.9774041175842285, -1.9313927888870239, -1.5398108959197998, -0.77526164054870605, -0.58508580923080444, -1.7022502422332764, };
const TfArray<1, int> tensor_dimension2 = { 1, { 8 } };
const ALIGN(8) float tensor_data3[16] = { 0.43060189485549927, -0.045041810721158981, -0.17584632337093353, -0.21252356469631195, -0.67160940170288086, -0.1203523576259613, 0.062510669231414795, -0.12862008810043335, -0.15974563360214233, -0.73615008592605591, -0.048734717071056366, -0.30375936627388, 0.17429168522357941, -0.16111776232719421, 0.50302976369857788, -0.69794446229934692, };
const TfArray<1, int> tensor_dimension3 = { 1, { 16 } };
const ALIGN(8) float tensor_data4[4] = { -1.495263934135437, 0.79840803146362305, 0.74755030870437622, -0.014167886227369308, };
const TfArray<1, int> tensor_dimension4 = { 1, { 4 } };
const ALIGN(8) float tensor_data5[4*400] = { 
  0.027987712994217873, -0.17154382169246674, 0.15474891662597656, 0.08822990208864212, 0.33431431651115417, -0.81779557466506958, -0.11284588277339935, -0.053427863866090775, 0.11922435462474823, -0.39321145415306091, 0.42151796817779541, -0.30586045980453491, -0.3918871283531189, -0.29046013951301575, 0.14004430174827576, 0.2559867799282074, 0.11184608936309814, 0.2318987101316452, 0.012933766469359398, -0.041434291750192642, 0.49247890710830688, -0.35001978278160095, -0.32570815086364746, 0.18272630870342255, 0.13203337788581848, -0.32506823539733887, 0.35104340314865112, -0.088936746120452881, -0.33700770139694214, -1.6780670881271362, 0.014113402925431728, 0.40534743666648865, 0.24785596132278442, 0.010847379453480244, 0.030724016949534416, 0.024960828945040703, 0.24601627886295319, 0.55539512634277344, 0.0024618618190288544, -0.15630103647708893, 0.28020936250686646, 0.20808768272399902, -0.042251832783222198, -0.15161265432834625, 0.33290001749992371, 0.30267545580863953, -0.035024397075176239, 0.42745822668075562, 0.22359184920787811, -0.1522759348154068, -0.38171166181564331, 0.24772933125495911, 0.52377152442932129, 0.27235856652259827, -0.091005012392997742, 0.0012808808824047446, 0.11193611472845078, 0.22389884293079376, 0.06586407870054245, -0.11419299244880676, -0.47052794694900513, 0.62841117382049561, 0.37590900063514709, 0.59492236375808716, -0.10403065383434296, -0.17087425291538239, -0.48205244541168213, 0.15724313259124756, 0.43777137994766235, 0.34634062647819519, 0.053446892648935318, 0.51749533414840698, -0.25043544173240662, 0.25848075747489929, 0.14662401378154755, -0.58136802911758423, -0.20653565227985382, 0.75355285406112671, -0.069862440228462219, 0.22736966609954834, 0.044284012168645859, 0.22388440370559692, -0.19131782650947571, -0.023234883323311806, 0.31399652361869812, 0.13531830906867981, -0.21066449582576752, 0.38167291879653931, -0.11983876675367355, 0.013861523941159248, -0.12624283134937286, -0.2656833827495575, -0.11358761042356491, 0.64867669343948364, 0.028440630063414574, 0.27645280957221985, -0.020140448585152626, -0.38671821355819702, -0.58048820495605469, 0.18575464189052582, 0.66606396436691284, 0.2813989520072937, -0.56789898872375488, -0.0062372745014727116, -0.10214456915855408, 0.3710981011390686, -0.037519641220569611, -0.0032110786996781826, 0.20129048824310303, 0.75304722785949707, -0.087234936654567719, 0.21255281567573547, 0.20019064843654633, -0.10497506707906723, -0.46102255582809448, -0.13613486289978027, 0.50319719314575195, 0.13811540603637695, -0.74063920974731445, -0.14470653235912323, -0.22818008065223694, -0.092031918466091156, 0.051164254546165466, -0.3707912266254425, 0.25660112500190735, 0.1926368921995163, 0.046093158423900604, 0.29072853922843933, 0.39855107665061951, 0.23366187512874603, -0.72540336847305298, -0.056992147117853165, 0.26814538240432739, 0.067575395107269287, -0.35384258627891541, -0.38291361927986145, -0.36385041475296021, -0.04957449808716774, 0.21458683907985687, -0.21351461112499237, 0.22490249574184418, 0.36706623435020447, 0.0055123572237789631, 0.34803813695907593, 0.039001710712909698, -0.058481387794017792, -1.0847110748291016, 0.014315452426671982, 0.43119871616363525, 0.10694842040538788, -0.56049621105194092, 0.1673506498336792, -0.21252745389938354, 0.041451018303632736, 0.13876649737358093, -0.139161616563797, 0.12944638729095459, 0.41387858986854553, -0.1289307028055191, 0.19723235070705414, 0.14706540107727051, 0.18553686141967773, -0.6470712423324585, -0.093905165791511536, 0.3536522388458252, 0.12676408886909485, -0.60297656059265137, -0.061435021460056305, -0.31908866763114929, 0.18350115418434143, 0.25288122892379761, -0.36627370119094849, 0.14850807189941406, 0.37563443183898926, -0.095674484968185425, 0.2082640677690506, 0.17167574167251587, 0.04517320916056633, -0.75594097375869751, -0.097227022051811218, 0.17538431286811829, 0.17955675721168518, -0.72737771272659302, -0.16550539433956146, -0.16440685093402863, 0.10693998634815216, 0.20118358731269836, -0.25582846999168396, 0.29195708036422729, 0.39456784725189209, -0.3400762677192688, 0.28351876139640808, 0.27049064636230469, 0.0094845015555620193, -0.61993116140365601, -0.31326586008071899, 0.36124694347381592, 0.079921893775463104, -0.37264227867126465, -0.068795770406723022, -0.33114635944366455, 0.21184447407722473, 0.084213800728321075, -0.57277959585189819, 0.26855161786079407, 0.11862888932228088, 0.28066417574882507, 0.22444400191307068, 0.28897508978843689, -0.044531244784593582, -0.48229628801345825, -0.27137073874473572, 0.36376845836639404, 0.23342941701412201, -0.43683075904846191, -0.17225271463394165, -0.14374294877052307, 0.22437551617622375, 0.29838287830352783, -0.37470009922981262, 0.070940069854259491, 0.25297224521636963, -0.11763924360275269, 0.23799951374530792, 0.36633491516113281, 0.022502301260828972, -0.3190673291683197, -0.072885066270828247, 0.25189247727394104, 0.24548333883285522, -0.12517827749252319, 0.24349704384803772, -0.35540935397148132, 0.14545872807502747, 0.22813205420970917, 0.03109508752822876, 0.40403047204017639, 0.41523194313049316, -0.033258900046348572, 0.24467895925045013, 0.29782560467720032, -0.1244671568274498, -0.28993511199951172, -0.12728936970233917, 0.28050521016120911, 0.13737712800502777, 0.042676378041505814, -0.30591869354248047, -0.1103806346654892, -0.011743774637579918, 0.37331929802894592, -0.35770681500434875, 0.26180943846702576, 0.358073890209198, 0.09994196891784668, 0.18185348808765411, 0.070531010627746582, 0.098252356052398682, -0.2976834774017334, -0.18146286904811859, 0.27759373188018799, 0.075162395834922791, -0.20444504916667938, -0.46345639228820801, 0.033790290355682373, -0.063599199056625366, 0.1214873418211937, -0.41768071055412292, 0.26532351970672607, 0.32302886247634888, 0.033551063388586044, 0.19697915017604828, 0.30798360705375671, -0.28405511379241943, -0.18658971786499023, -0.13077846169471741, 0.34471985697746277, 0.24771979451179504, -0.2807154655456543, -0.7269628643989563, -0.15018494427204132, 0.076826773583889008, -0.013593036681413651, -0.45283883810043335, 0.36631914973258972, 0.29004687070846558, 0.11310618370771408, 0.33596861362457275, 0.077296681702136993, -0.048103466629981995, -0.12610551714897156, -0.35297262668609619, 0.56311535835266113, 0.25762596726417542, -0.53304159641265869, -0.84262138605117798, -0.75799351930618286, 0.018879272043704987, 0.022951845079660416, 0.0045662904158234596, 0.72304719686508179, 0.3866727352142334, -0.084442317485809326, 0.59576171636581421, 0.25627493858337402, 0.21915234625339508, -0.55575478076934814, -0.19383145868778229, 0.61757344007492065, 0.24605469405651093, -0.55730909109115601, -0.22543032467365265, -0.40437158942222595, -0.046487905085086823, 0.2313116192817688, -0.67925649881362915, 0.43397423624992371, 0.35378047823905945, 0.40751737356185913, 0.092331632971763611, 0.1212354451417923, -0.097195006906986237, -0.66914159059524536, -0.065000295639038086, 0.42057609558105469, -0.075947806239128113, -0.21645368635654449, -0.43366703391075134, -0.46941962838172913, -0.41834008693695068, 0.053348198533058167, -0.097372099757194519, 0.34051141142845154, 0.5406486988067627, 0.089247219264507294, 0.33650970458984375, 0.30259025096893311, 0.29152089357376099, -0.60659271478652954, -0.21671517193317413, 0.77981734275817871, 0.43405565619468689, -0.66661912202835083, -0.55126601457595825, -0.30632391571998596, -0.43766209483146667, 0.32332649827003479, 0.064909309148788452, 0.74348258972167969, 0.55561023950576782, 0.040531720966100693, -0.28773230314254761, 0.29470229148864746, -0.051394157111644745, -0.33004507422447205, -0.058388981968164444, 0.6563413143157959, 0.46417796611785889, -0.14105992019176483, -0.36399218440055847, -0.0058615659363567829, 0.43100836873054504, 0.072582155466079712, -0.14256578683853149, 0.094817370176315308, 0.68144065141677856, 0.10841617733240128, 0.03936559334397316, 0.18887566030025482, 0.10682862997055054, -0.90096360445022583, -0.092835783958435059, 0.44812712073326111, 0.035758882761001587, -0.64859336614608765, -0.35398852825164795, -0.9962649941444397, 0.12157158553600311, -0.042376253753900528, -0.18193547427654266, 0.35817837715148926, 0.6026226282119751, 0.17411720752716064, -0.384307861328125, 0.32528963685035706, 0.25742948055267334, -0.77761274576187134, 0.14910174906253815, -0.41951808333396912, -0.081053838133811951, -0.15713556110858917, -0.48285406827926636, -0.5672571063041687, -0.33268201351165771, 0.41012483835220337, 0.033352337777614594, 0.15199132263660431, 0.68387597799301147, 0.0053647523745894432, -0.15721309185028076, 
  -0.20019492506980896, 0.09118390828371048, -0.47627216577529907, -0.094427615404129028, 0.12925492227077484, 0.95097959041595459, 0.16504432260990143, -0.50632911920547485, 0.20967523753643036, 0.11662738025188446, -0.74854230880737305, -0.022780399769544601, 0.4786050021648407, 0.57652640342712402, 0.027499932795763016, 0.13754822313785553, -0.69077503681182861, -0.2309335321187973, 0.28645762801170349, 0.27937880158424377, -0.42755511403083801, 0.072325132787227631, 0.5636255145072937, 0.018062260001897812, -0.018033998087048531, -0.11056788265705109, -0.84199285507202148, 0.16372990608215332, 0.069555558264255524, 0.56763237714767456, -0.47885072231292725, -0.40454426407814026, -1.1241606473922729, -0.039239037781953812, 0.1667964905500412, 0.38884943723678589, -0.032985951751470566, -0.35090962052345276, -0.1971295028924942, 0.074044190347194672, 0.079312518239021301, -0.7796710729598999, -0.36908885836601257, 0.13017880916595459, 0.13365858793258667, -0.29252305626869202, -0.39395049214363098, -0.87597465515136719, -0.65405398607254028, 0.20819562673568726, 0.28890568017959595, 0.036303412169218063, -0.29643037915229797, -0.29153746366500854, 0.23876671493053436, -0.12119954824447632, 0.56473243236541748, -0.71068066358566284, -0.85589355230331421, 0.10835705697536469, 0.5696907639503479, -0.77964705228805542, -0.64663112163543701, -0.88253039121627808, -0.25004705786705017, 0.31244614720344543, 0.45325517654418945, 0.24339714646339417, -0.23173846304416656, -0.091216839849948883, 0.074249029159545898, -0.41393345594406128, 0.037259265780448914, -0.99016600847244263, 0.02068469300866127, 0.36260086297988892, 0.20013178884983063, 0.1388508528470993, -0.23676660656929016, 0.16152401268482208, -0.95445829629898071, 0.31485554575920105, 0.34645047783851624, 0.53104108572006226, -0.62097209692001343, -0.15317632257938385, 0.30751970410346985, 0.13414780795574188, 0.30574968457221985, -0.62334358692169189, 0.12275242805480957, 0.24154195189476013, -0.05830099806189537, 0.08383449912071228, -0.79565548896789551, -0.32909479737281799, -0.16658426821231842, 0.19560475647449493, 0.36811265349388123, 0.2813376784324646, -0.42154064774513245, -0.38560411334037781, 0.11546842753887177, -0.010927308350801468, 0.00439425278455019, -0.93045210838317871, 0.077898077666759491, -0.19508813321590424, -0.011721275746822357, -0.43721085786819458, -0.21722020208835602, 0.15500800311565399, -0.14372353255748749, 0.60199940204620361, 0.30118796229362488, 0.24203914403915405, 0.10485938936471939, -0.019907029345631599, -0.096887215971946716, 0.51526153087615967, -0.21820148825645447, -0.12548595666885376, 0.070757247507572174, 0.40552455186843872, 0.14363367855548859, -0.1597551703453064, -0.35186716914176941, -0.10834125429391861, -0.19479893147945404, 0.30290481448173523, 0.32553166151046753, 0.57429605722427368, -0.044807683676481247, -0.15176062285900116, -0.054158180952072144, 0.47692704200744629, 0.15184879302978516, -0.11651311814785004, -0.60757505893707275, 0.40877842903137207, 0.14499229192733765, -0.41193976998329163, -0.49936580657958984, -0.26349279284477234, -0.12125211954116821, 0.53745919466018677, 0.24835211038589478, 0.096723452210426331, -0.1770637184381485, 0.0066216816194355488, -0.26275616884231567, 0.2133854478597641, 0.19972439110279083, -0.47012561559677124, -0.5483630895614624, 0.21918502449989319, 0.11765818297863007, -0.16425374150276184, -0.22845575213432312, -0.3759247362613678, -0.19053919613361359, 0.055514127016067505, 0.076378047466278076, 0.30045384168624878, -0.44099947810173035, -0.29430386424064636, -0.065887458622455597, -0.19401988387107849, 0.0090566081926226616, -0.60336983203887939, -0.35820993781089783, 0.36728331446647644, 0.0066297249868512154, 0.051608551293611526, -0.45668008923530579, -0.6553957462310791, -0.12553359568119049, 0.23959869146347046, 0.15267844498157501, 0.41961950063705444, -0.0056438595056533813, -0.3045114278793335, 0.018155861645936966, 0.31462562084197998, 0.09771256148815155, -0.60866546630859375, -0.30410081148147583, 0.043787769973278046, 0.38422566652297974, -0.54467779397964478, -0.22171838581562042, -0.51490449905395508, -0.93530148267745972, 0.26037463545799255, 0.27719882130622864, 0.20828180015087128, 0.10274384915828705, -0.093019828200340271, -0.045290648937225342, 0.17955255508422852, 0.49413728713989258, -0.80262982845306396, -0.13366569578647614, 0.42548757791519165, 0.52521622180938721, 0.0086751803755760193, -0.53658878803253174, -0.35327154397964478, -0.59576529264450073, 0.014998810365796089, 0.19564168155193329, 0.33210670948028564, -0.1734088808298111, -0.46795406937599182, -0.15786609053611755, -0.23077967762947083, 0.40864983201026917, -0.84905910491943359, -0.53569352626800537, 0.26311066746711731, -0.052653305232524872, -0.10287997126579285, -0.2052219957113266, -0.72433817386627197, -0.59000158309936523, 0.3316323459148407, 0.15826034545898438, 0.28170761466026306, -0.19193261861801147, -0.18222323060035706, -0.016948606818914413, 0.16409251093864441, 0.047866273671388626, -0.56573200225830078, -0.25320133566856384, 0.17461547255516052, 0.27709367871284485, -0.51606184244155884, -0.32651141285896301, -0.50137758255004883, -0.32682394981384277, 0.58993673324584961, -0.05616346001625061, 0.28431364893913269, -0.24683274328708649, -0.30878651142120361, -0.10366853326559067, 0.18885588645935059, -0.14367736876010895, -0.63798826932907104, -0.51973050832748413, 0.17451763153076172, 0.4083855152130127, -0.63093149662017822, -0.28824466466903687, -0.15585456788539886, 0.020977340638637543, 0.50505775213241577, -0.048439193516969681, 0.31156978011131287, 0.06411316990852356, 0.021222440525889397, -0.027068156749010086, 0.18808366358280182, 0.27407732605934143, -0.70478922128677368, 0.025654595345258713, 0.17312924563884735, 0.29549956321716309, -0.10966355353593826, -0.46947118639945984, -0.12304773926734924, -0.19561953842639923, 0.32711765170097351, -0.33874258399009705, 0.50366264581680298, 0.19501183927059174, -0.42157849669456482, -0.066978134214878082, 0.20746554434299469, -0.36450862884521484, -0.42418313026428223, 0.24474073946475983, 0.45633417367935181, -0.18155448138713837, -0.12375124543905258, -0.36926040053367615, -0.43802160024642944, -0.71073150634765625, 0.33118245005607605, -0.17977803945541382, 0.22998403012752533, -0.4785936176776886, -0.50599652528762817, 0.40839067101478577, -0.089978985488414764, 0.38586586713790894, -0.25359967350959778, -0.076538659632205963, 0.13771788775920868, 0.16627655923366547, -0.27995496988296509, -0.033623926341533661, -0.3754686713218689, -0.47277376055717468, 0.31941717863082886, 0.04433232918381691, 0.16629102826118469, -0.17986397445201874, 0.058674991130828857, -0.012013708241283894, -0.14468009769916534, 0.025129763409495354, -0.28670331835746765, 0.19158788025379181, 0.1706511378288269, -0.10777303576469421, -0.60237866640090942, -0.83072370290756226, -0.076566994190216064, -0.94486957788467407, 0.49115881323814392, 0.12346277385950089, 0.27036464214324951, -0.0018429188057780266, 0.12937586009502411, -0.28724688291549683, -0.11533880233764648, -0.1715240478515625, -0.56454527378082275, -0.10225784033536911, 0.17083545029163361, 0.1146661639213562, 0.0098984595388174057, -0.64348161220550537, -0.22503156960010529, -0.90166199207305908, 0.073469877243041992, 0.070490278303623199, 0.44815632700920105, -0.34267726540565491, -0.18237422406673431, 0.10008397698402405, 0.14494292438030243, 0.019022166728973389, 0.025984110310673714, -0.44785723090171814, 0.13662542402744293, -0.38398772478103638, -0.58992475271224976, -0.81458371877670288, -0.50495707988739014, -0.9137076735496521, 0.14473731815814972, -0.16937477886676788, 0.19834157824516296, -0.059992119669914246, -0.24328280985355377, -0.16258901357650757, 0.089558914303779602, -0.16247379779815674, -0.41687726974487305, -0.71623563766479492, 0.13280589878559113, -0.20515061914920807, -0.098514162003993988, -0.57427877187728882, -0.60970544815063477, -1.0018644332885742, -0.091610841453075409, 0.61353975534439087, 0.27090346813201904, 0.18916074931621552, 0.072058893740177155, -0.1016949936747551, -0.004137206356972456, 0.032027982175350189, -0.51237839460372925, -0.32253465056419373, 0.24356654286384583, 0.29942411184310913, 0.38393205404281616, -0.90960586071014404, -0.15352410078048706, -0.52550381422042847, 0.0062937256880104542, 0.33466970920562744, -0.0067295650951564312, 0.60216611623764038, 0.24741362035274506, 0.1834578812122345, 0.29071161150932312, 0.2544940710067749, -0.35283774137496948, -0.37542852759361267, -0.99237293004989624, 0.5397566556930542, 0.11854837089776993, -0.64473140239715576, -0.31148788332939148, 
  -0.0020717305596917868, 0.046364795416593552, 0.15712179243564606, 0.051506150513887405, -0.20600193738937378, -0.10654588043689728, 0.072456926107406616, 0.17424792051315308, -0.17259694635868073, -0.061092633754014969, 0.043284792453050613, -0.025693740695714951, -0.13191878795623779, -0.92978382110595703, -0.099551349878311157, -0.19928218424320221, 0.12862543761730194, 0.12717518210411072, -0.18023854494094849, -0.12799312174320221, -0.44099310040473938, 0.23570208251476288, -0.13744691014289856, -0.033941470086574554, -0.24601872265338898, -0.24706785380840302, 0.032298430800437927, 0.018278693780303001, 0.034438543021678925, 0.32814854383468628, 0.25512972474098206, -0.64316302537918091, 0.1458827406167984, -0.035142354667186737, -0.0046332031488418579, 0.02713676355779171, -0.39248552918434143, 0.017010554671287537, 0.40242913365364075, 0.040650427341461182, -0.39577746391296387, -0.2865368127822876, 0.046522293239831924, -0.16361029446125031, -0.39467766880989075, -0.58172178268432617, 0.13233895599842072, -0.2416277676820755, 0.1302076131105423, 0.092557348310947418, 0.14616267383098602, -0.0003111640689894557, -0.35019409656524658, 0.25210249423980713, -0.16919149458408356, -0.31639015674591064, -0.54446488618850708, -0.58969753980636597, 0.075117781758308411, 0.14610058069229126, -0.23716171085834503, 0.10133057087659836, 0.049628674983978271, -0.52191096544265747, 0.23464004695415497, -0.021383335813879967, 0.17715297639369965, -0.20283423364162445, -0.27486872673034668, 0.4754464328289032, -0.12318180501461029, -0.061511196196079254, 0.20206482708454132, -0.28946539759635925, -0.18123446404933929, 0.20155215263366699, -0.15980558097362518, -0.07862304151058197, 0.32575982809066772, -0.64305716753005981, 0.17198780179023743, -0.095091551542282104, 0.062402863055467606, -0.13635833561420441, -0.28923007845878601, 0.28664880990982056, 0.17120747268199921, -0.42749297618865967, 0.13899782299995422, -0.29091513156890869, -0.031061481684446335, 0.39646255970001221, 0.28570440411567688, -0.091794714331626892, 0.50012952089309692, -0.4719657301902771, -0.0059184175916016102, 0.10703889280557632, 0.20637944340705872, -0.064706623554229736, -0.32713291049003601, 0.15595276653766632, 0.19111153483390808, -0.0064891446381807327, 0.054935682564973831, -0.43357741832733154, -0.34163597226142883, 0.25687709450721741, -0.27551233768463135, -0.25764471292495728, 0.18285329639911652, -0.5003279447555542, 0.11582487821578979, 0.02202974259853363, 0.13689820468425751, -0.098970450460910797, -0.36472940444946289, 0.033876493573188782, 0.077210217714309692, -0.27213361859321594, 0.13395290076732635, 0.0061711650341749191, -0.070323340594768524, -0.048752691596746445, -0.017049413174390793, 0.056199744343757629, 0.088926635682582855, -0.45335894823074341, -0.17884404957294464, -0.04368668794631958, 0.32384082674980164, -0.19780054688453674, -0.22554254531860352, 0.053360886871814728, 0.0093742534518241882, -0.17476834356784821, 0.20207259058952332, -0.26872199773788452, -0.042658161371946335, 0.14929535984992981, -0.11986055970191956, 0.065871886909008026, 0.10386371612548828, -0.31244614720344543, 0.19545167684555054, -0.059566628187894821, 0.12872512638568878, -0.031178396195173264, -0.2661622166633606, 0.26317790150642395, -0.23488587141036987, -0.47020012140274048, 0.027475036680698395, -0.26986286044120789, -0.14771498739719391, 0.17567735910415649, 0.0061745001003146172, -0.014189126901328564, 0.14428433775901794, -0.3237280547618866, 0.034248694777488708, -0.11562056094408035, 0.18882033228874207, -0.1157844290137291, -0.24069574475288391, 0.16992011666297913, 0.20493820309638977, -0.19444091618061066, 0.12054966390132904, -0.023581061512231827, -0.0039488053880631924, 0.25016555190086365, -0.086539916694164276, 0.12543930113315582, 0.021056750789284706, -0.3416198194026947, 0.14994002878665924, 0.091719649732112885, 0.14939749240875244, -0.21994143724441528, -0.27966976165771484, 0.29213234782218933, -0.11027456820011139, -0.33975574374198914, 0.15651620924472809, -0.14528058469295502, -0.021855786442756653, 0.27250677347183228, -0.08282867819070816, -0.013746690005064011, -0.10315301269292831, -0.24625861644744873, 0.12277402728796005, 0.036327119916677475, 0.17994160950183868, -0.13026590645313263, -0.19075700640678406, 0.23234924674034119, 0.047164998948574066, -0.20459942519664764, 0.18338572978973389, -0.089313961565494537, 0.0013161422684788704, 0.2198345810174942, -0.19537480175495148, -0.021493082866072655, -0.055646724998950958, -0.2113974392414093, 0.24389082193374634, 0.11858600378036499, 0.00049116642912849784, 0.10131313651800156, -0.32962185144424438, 0.18424800038337708, 0.21990552544593811, -0.12594470381736755, 0.19584263861179352, -0.09986075758934021, 0.039775107055902481, 0.45630431175231934, 0.084035895764827728, -0.064655639231204987, -0.085359662771224976, -0.3657442033290863, -0.079442553222179413, -0.097509264945983887, 0.089150495827198029, -0.10832648724317551, -0.13432985544204712, 0.098070569336414337, 0.04631081223487854, -0.16750527918338776, 0.33163979649543762, -0.08295246958732605, 0.066705852746963501, 0.24294431507587433, -0.29632684588432312, -0.039167579263448715, -0.11892293393611908, -0.38947391510009766, 0.062453519552946091, -0.12093455344438553, 0.11792699992656708, -0.084517680108547211, -0.2289326936006546, 0.15827925503253937, -0.12201140820980072, -0.070715963840484619, 0.18713511526584625, -0.061791807413101196, 0.33860787749290466, 0.38088560104370117, -0.061916477978229523, 0.20039734244346619, -0.071248002350330353, -0.45379465818405151, 0.2892763614654541, -0.1554124653339386, -0.014781089499592781, 0.033811397850513458, -0.16102546453475952, 0.16496022045612335, -0.24262213706970215, 0.1186743751168251, 0.22848530113697052, -0.086158044636249542, 0.014386980794370174, 0.33773243427276611, 0.018870450556278229, -0.18703481554985046, -0.14792056381702423, -0.34001952409744263, 0.35039353370666504, -0.055726613849401474, 0.1790284663438797, -0.025898322463035583, -0.072316288948059082, 0.33196151256561279, -0.033542536199092865, 0.084028668701648712, 0.3268204927444458, -0.12404576689004898, -0.14418154954910278, 0.13820536434650421, -0.14954251050949097, 0.0789814293384552, 0.021933753043413162, -0.11939737200737, 0.1649107038974762, 0.022998083382844925, 0.21149887144565582, -0.1283891350030899, -0.17615699768066406, 0.15113955736160278, -0.26555433869361877, 0.12388034909963608, 0.27810937166213989, -0.091903306543827057, 0.011661309748888016, 0.024405352771282196, -0.088756680488586426, 0.026009246706962585, 0.052672933787107468, -0.9017636775970459, 0.27368843555450439, -0.14460757374763489, 0.093759976327419281, -0.12594747543334961, -0.22024904191493988, 0.26999220252037048, 0.14201432466506958, -0.25838503241539001, 0.32990193367004395, -0.26320087909698486, -0.23483982682228088, 0.049338623881340027, -0.20594488084316254, 0.2190224826335907, -0.042836356908082962, -0.049651186913251877, 0.12407612055540085, -0.049049809575080872, -0.026274474337697029, -0.14866018295288086, -0.20027269423007965, 0.54322874546051025, 0.059267885982990265, -0.13605166971683502, 0.56383103132247925, -0.12418236583471298, 0.17980372905731201, 0.11427599936723709, 0.32210376858711243, 0.026528550311923027, 0.20063507556915283, -0.16468618810176849, 0.26824831962585449, -0.26966202259063721, 0.032663092017173767, -0.032957661896944046, 0.12445470690727234, 0.3343675434589386, 0.039689831435680389, -0.28524011373519897, 0.56480145454406738, -0.34803026914596558, 0.0028382223099470139, -0.19702343642711639, 0.049187526106834412, 0.21131277084350586, -0.012375607155263424, -0.18515793979167938, 0.30475732684135437, 0.11027519404888153, 0.26523661613464355, -0.23151819407939911, -0.30947396159172058, 0.31703907251358032, 0.021738890558481216, 0.02982063964009285, 0.12424363940954208, -0.70113027095794678, 0.11299291253089905, 0.19693507254123688, 0.0076391622424125671, -0.012573047541081905, 0.078501500189304352, -0.28441479802131653, 0.24429449439048767, 0.029923830181360245, 0.19465017318725586, -0.36626344919204712, -0.44809994101524353, 0.37713301181793213, -0.28075620532035828, -0.049461934715509415, 0.37139001488685608, -0.070175819098949432, 0.24870388209819794, 0.063835076987743378, -0.22870036959648132, -0.51836895942687988, 0.12695324420928955, -0.11995942890644073, -0.024160118773579597, -0.13052330911159515, 0.039092648774385452, -0.025827480480074883, -0.32035684585571289, 0.0093970159068703651, -0.68968909978866577, -0.44107246398925781, -0.033290117979049683, -0.014175515621900558, 0.09985632449388504, 0.2724076509475708, -0.15560062229633331, -0.52168667316436768, 0.29961073398590088, 0.21253456175327301, 
  0.10719665139913559, 0.033592645078897476, 0.18704319000244141, 0.18158702552318573, -0.10121918469667435, -0.91126382350921631, -0.26262170076370239, 0.12595738470554352, -0.02507433108985424, 0.49565958976745605, 0.018977085128426552, 0.21278961002826691, -0.056978810578584671, 0.29333752393722534, 0.053622446954250336, 0.1808641105890274, 0.17969150841236115, -0.27190139889717102, -0.50526976585388184, -0.13551746308803558, 0.11182408034801483, -0.05324845016002655, -0.41328740119934082, -0.025406260043382645, 0.28447860479354858, 0.73337525129318237, 0.1803710013628006, -0.03629525750875473, 0.21040147542953491, 0.63496381044387817, 0.01314876414835453, 0.74807912111282349, 0.17435003817081451, -0.14184403419494629, -0.51536494493484497, -0.36613786220550537, -0.028192266821861267, -0.42940071225166321, -0.33037936687469482, -0.2784188985824585, 0.061533544212579727, 0.73171538114547729, 0.17047116160392761, 0.21195375919342041, -0.30963319540023804, 0.28397685289382935, 0.33868348598480225, 0.5622517466545105, 0.19215977191925049, 0.018435684964060783, -0.31631597876548767, -0.18025878071784973, 0.13079731166362762, -0.61837637424468994, -0.10608883202075958, 0.57414275407791138, -0.076022185385227203, 0.90984857082366943, 0.12975572049617767, -0.17664402723312378, 0.27950197458267212, -0.46744954586029053, 0.099142149090766907, 0.56461358070373535, 0.0099363913759589195, -0.0715646892786026, -0.30628791451454163, -0.26650416851043701, 0.058886110782623291, -1.4414944648742676, 0.084244303405284882, -0.095314912497997284, -0.092591635882854462, 0.70774281024932861, 0.26344296336174011, -0.24959197640419006, 0.5080949068069458, -1.4039839506149292, -0.086450271308422089, 0.34925171732902527, 0.43769210577011108, -0.24487364292144775, -0.32747161388397217, -0.36420789361000061, -0.073166616261005402, -0.43225342035293579, -0.51056772470474243, 0.024638611823320389, -0.3368661105632782, 0.80087935924530029, -0.18336115777492523, -0.52606576681137085, -0.32479432225227356, -1.235193133354187, 0.015642000362277031, 0.39110782742500305, 0.31038722395896912, -0.35038748383522034, -0.029703328385949135, -0.52862250804901123, -0.083160929381847382, -0.10071378946304321, 0.12771420180797577, 0.093661658465862274, 0.052588090300559998, 0.65852123498916626, 0.2033659815788269, -0.21140857040882111, -0.034887649118900299, -0.99687278270721436, 0.055322684347629547, 0.2176240086555481, -0.085793964564800262, -0.46573254466056824, 0.196329265832901, -0.037316508591175079, -0.087374068796634674, -0.31634828448295593, 0.25388526916503906, 0.19890329241752625, 0.14464804530143738, 0.46591728925704956, 0.032559704035520554, -0.076399512588977814, -0.26412108540534973, -0.54357677698135376, 0.22844356298446655, 0.2118457555770874, 0.33588981628417969, -0.26368078589439392, 0.0079497573897242546, -0.31075957417488098, -0.084701694548130035, -0.44461539387702942, 0.21356755495071411, 0.14190898835659027, -0.054246943444013596, 0.371318519115448, 0.13310381770133972, -0.36673396825790405, -0.54043418169021606, -0.51034164428710938, 0.24955540895462036, 0.23240265250205994, -0.071420148015022278, -0.49101221561431885, 0.11322914808988571, -0.12442602217197418, -0.13221606612205505, -0.29034212231636047, 0.5527300238609314, 0.20447453856468201, -0.31176745891571045, 0.40985706448554993, 0.36948183178901672, -0.18961772322654724, -0.38122192025184631, -0.68515622615814209, 0.26268139481544495, 0.23224750161170959, 0.15221576392650604, -0.22991681098937988, 0.18110063672065735, -0.15505705773830414, -0.11527081578969955, -0.39877209067344666, 0.31551250815391541, 0.30280998349189758, -0.025901267305016518, 0.32428812980651855, 0.038865018635988235, -0.38181918859481812, -0.33921259641647339, -0.52040070295333862, 0.25457096099853516, 0.24872888624668121, 0.11567769944667816, -0.54723447561264038, 0.13946330547332764, -0.12531951069831848, 0.15549437701702118, -0.10450448095798492, 0.52255737781524658, 0.248422771692276, -0.25693798065185547, 0.34660294651985168, 0.035391572862863541, -0.38820883631706238, -0.78907674551010132, -0.49982106685638428, 0.36370196938514709, 0.52167707681655884, 0.43194848299026489, -0.22903306782245636, 0.14890988171100616, 0.20877136290073395, -0.052973527461290359, -0.13656862080097198, 0.36668577790260315, 0.30687189102172852, -0.082073308527469635, 0.45306175947189331, 0.097597621381282806, -0.23138448596000671, -0.58932524919509888, -0.41928523778915405, 0.39741471409797668, 0.2241838276386261, -0.10735898464918137, -0.37386253476142883, 0.086559779942035675, -0.21112531423568726, -0.14626963436603546, -0.29366451501846313, 0.30836096405982971, 0.21016542613506317, -0.50398564338684082, 0.38314133882522583, 0.11792440712451935, -0.37229093909263611, -0.12564696371555328, -0.75986665487289429, 0.1744217574596405, 0.34954360127449036, 0.23895332217216492, -0.6003914475440979, 0.12686906754970551, -0.19981159269809723, -0.086436569690704346, -0.45487073063850403, 0.33192923665046692, 0.02589409239590168, -0.07895863801240921, 0.51368612051010132, -0.0021484463941305876, -0.61983692646026611, -0.61115175485610962, -0.64373475313186646, 0.41336822509765625, 0.36625432968139648, -0.028992448002099991, -0.40796706080436707, 0.041657574474811554, -0.21965305507183075, 0.018766982480883598, -0.947509765625, 0.31669989228248596, 0.17848657071590424, -0.31474179029464722, 0.40571463108062744, -0.40488308668136597, -0.99238622188568115, -0.89068442583084106, -0.7163320779800415, 0.38410553336143494, 0.38512182235717773, -0.22150544822216034, -0.48168957233428955, 0.210015669465065, 0.013615732081234455, -0.20590370893478394, -0.38135576248168945, 0.29288852214813232, 0.21008549630641937, -0.56331157684326172, 0.43881475925445557, -0.20217438042163849, -0.18570660054683685, -0.45086029171943665, -0.38063180446624756, 0.444408118724823, 0.20274312794208527, -0.46099680662155151, -0.36218363046646118, -0.0057798260822892189, -0.46958357095718384, -0.23726533353328705, -0.65507477521896362, 0.23133139312267303, 0.23849639296531677, -0.31790381669998169, 0.25254955887794495, -0.21476131677627563, -0.11179349571466446, -0.24722552299499512, -0.74636876583099365, 0.21951873600482941, 0.22302252054214478, 0.22031143307685852, -0.29314795136451721, 0.30633231997489929, -0.06650996208190918, 0.11172927170991898, -0.69854748249053955, 0.30777797102928162, 0.51277267932891846, 0.1482422798871994, 0.23349055647850037, -0.0094658052548766136, -0.27216249704360962, -0.6958659291267395, -0.39429780840873718, 0.27335703372955322, 0.49134901165962219, -0.16834044456481934, -0.4059012234210968, 0.22563625872135162, -0.14525152742862701, -0.36621564626693726, -1.0928803682327271, 0.48826465010643005, 0.43712279200553894, -0.3129870593547821, 0.92674297094345093, -0.25850540399551392, 0.09264761209487915, -0.72895151376724243, -0.8887140154838562, 0.25485920906066895, -0.16977763175964355, 0.059733446687459946, -0.46111929416656494, 0.31039252877235413, -0.049928046762943268, -0.31781640648841858, -2.0521736145019531, 0.51406973600387573, 0.64261454343795776, -0.32203704118728638, 0.56437534093856812, -0.31698596477508545, -1.1034575700759888, -1.0979157686233521, -1.4499200582504272, 0.22475896775722504, 0.072768844664096832, 0.041007336229085922, -0.28035354614257812, -0.039483584463596344, -0.40825942158699036, -0.63043636083602905, -1.761760950088501, 0.52414751052856445, 0.49413076043128967, -0.55568200349807739, 0.62085950374603271, -0.33983910083770752, -0.40491136908531189, -0.83126842975616455, -1.1642841100692749, 0.47069615125656128, 0.69015061855316162, -0.26770234107971191, -0.29884561896324158, 0.16472221910953522, 0.13098065555095673, -0.72202408313751221, -1.951549768447876, 0.32413297891616821, 0.19978255033493042, -0.017685890197753906, 0.81711453199386597, -0.12089243531227112, -0.35213401913642883, 0.072322212159633636, -1.1838256120681763, 0.25543373823165894, 0.67949479818344116, -0.010543799959123135, 0.044136088341474533, -0.15278346836566925, 0.091247983276844025, -0.48779776692390442, -1.5503978729248047, 0.92076915502548218, 0.35145744681358337, 0.28427800536155701, 0.33688324689865112, -0.015971295535564423, -0.087072968482971191, -0.37671151757240295, -0.87867265939712524, 0.27951690554618835, 0.3010566234588623, -0.042349431663751602, -0.14076639711856842, 0.13390828669071198, 0.037686843425035477, -0.03826618567109108, -0.55522686243057251, 0.77266073226928711, 0.74144071340560913, 0.20068910717964172, 0.22727130353450775, -0.092255160212516785, 0.12384317070245743, -0.68305134773254395, -0.55092722177505493, -0.0305350162088871, 0.21314789354801178, 
};
const TfArray<2, int> tensor_dimension5 = { 2, { 4,400 } };
const ALIGN(8) float tensor_data6[8] = { 0, 0, 0, 0, 0, 0, 0, 0, };
const TfArray<1, int> tensor_dimension6 = { 1, { 8 } };
const ALIGN(8) float tensor_data7[8*1*3*13] = { 
  /* [0][0][][] */ -1.5241708755493164,-0.49190628528594971,-0.24635006487369537,0.058178890496492386,-0.032757315784692764,-0.10488452762365341,0.2827208936214447,-0.24202229082584381,-0.079507716000080109,0.014352181926369667,-0.037790574133396149,-0.067972183227539062,0.051413998007774353, 0.82289350032806396,-0.61519783735275269,-0.081692896783351898,-0.25252547860145569,0.031012702733278275,-0.089495263993740082,0.0030598551966249943,0.19607333838939667,0.30002456903457642,-0.27616569399833679,0.22572952508926392,-0.12382296472787857,0.18123409152030945, -0.71234321594238281,-0.32081043720245361,-0.085508070886135101,0.1188037246465683,-0.065461203455924988,-0.025641629472374916,0.01863740012049675,-0.11724118143320084,0.025723149999976158,0.047582846134901047,0.040372759103775024,0.14015652239322662,-0.22528132796287537, 
  /* [1][0][][] */ -1.4495924711227417,0.024450963363051414,-0.39894372224807739,-0.047446489334106445,0.23314270377159119,0.31999555230140686,-0.29543569684028625,-0.23470942676067352,0.235194131731987,-0.17012332379817963,0.10172632336616516,0.031229512766003609,-0.0083641931414604187, 0.20238865911960602,0.63482052087783813,0.66962677240371704,0.38982114195823669,0.25453978776931763,-0.036941979080438614,0.414674311876297,0.35979583859443665,-0.060091976076364517,-0.17867949604988098,0.071068949997425079,-0.11908335238695145,-0.1000983864068985, 1.1926971673965454,-0.30077263712882996,-0.42334428429603577,-0.096625082194805145,-0.33219003677368164,-0.18607008457183838,-0.12575541436672211,0.096831046044826508,-0.25296115875244141,0.059218142181634903,0.031125839799642563,-0.11383690685033798,-0.1882694810628891, 
  /* [2][0][][] */ 0.073640346527099609,0.13815906643867493,0.28024071455001831,0.11784251779317856,-0.49231034517288208,0.029838070273399353,0.18868184089660645,0.065832428634166718,-0.048011317849159241,-0.077738389372825623,0.066803328692913055,-0.11667134612798691,0.048853326588869095, 0.45755249261856079,-0.23740503191947937,-0.094426281750202179,0.21527273952960968,-0.056432459503412247,0.0085537638515233994,0.36971098184585571,0.067477107048034668,-0.19935816526412964,0.11437144130468369,-0.20824486017227173,-0.081268876791000366,-0.13514150679111481, 0.58059537410736084,0.050608761608600616,-0.3866572380065918,0.10244420170783997,-0.49076148867607117,-0.14153186976909637,0.19183245301246643,0.47222325205802917,-0.44825467467308044,0.043384086340665817,0.068470917642116547,-0.34827122092247009,0.36228236556053162, 
  /* [3][0][][] */ -0.78253793716430664,-0.061798300594091415,-0.21149294078350067,0.14318160712718964,0.18863587081432343,-0.10440216958522797,-0.023298369720578194,0.16919299960136414,-0.28330296277999878,0.1112569272518158,-0.098281554877758026,0.12718185782432556,-0.11814655363559723, 0.69923382997512817,0.071004055440425873,-0.12008508294820786,-0.02880648709833622,0.041664797812700272,-0.1271398514509201,-0.040807757526636124,0.30195862054824829,0.012075640261173248,-0.23508389294147491,-0.063842214643955231,0.093988813459873199,0.19219887256622314, 1.2404628992080688,0.29001641273498535,-0.71819663047790527,0.059054721146821976,0.13382263481616974,-0.39795079827308655,-0.06978239119052887,0.26891815662384033,0.083286076784133911,-0.15796959400177002,-0.02626199834048748,-0.025057664141058922,-0.047254312783479691, 
  /* [4][0][][] */ -0.42310753464698792,0.024640265852212906,-0.39972057938575745,-0.33293569087982178,0.37271174788475037,-0.29426330327987671,-0.23223096132278442,0.1132378950715065,0.20139826834201813,-0.16213527321815491,-0.10465531051158905,0.014080600813031197,-0.073441915214061737, 0.27794182300567627,0.21824435889720917,-0.15931704640388489,-0.31904977560043335,0.19759972393512726,-0.19620460271835327,-0.31389784812927246,-0.11654780805110931,0.13383045792579651,0.32190552353858948,-0.16826483607292175,0.11282926052808762,0.22051247954368591, 0.65146499872207642,0.27333196997642517,0.085582852363586426,-0.15895549952983856,-0.6430964469909668,0.13235679268836975,0.053176544606685638,0.025361150503158569,-0.067412227392196655,0.0051762908697128296,0.32688271999359131,0.015796098858118057,-0.23525479435920715, 
  /* [5][0][][] */ 0.69007158279418945,-0.16934226453304291,-0.22397215664386749,0.0024761129170656204,0.091881915926933289,-0.1023339107632637,0.044760536402463913,0.09018959105014801,-0.23762208223342896,0.035440411418676376,0.043622933328151703,-0.019377920776605606,0.11548430472612381, 0.51067143678665161,0.38328766822814941,0.085305139422416687,0.42340168356895447,-0.2361714094877243,-0.012816747650504112,0.043101057410240173,0.037075512111186981,0.19154468178749084,-0.12593282759189606,0.12318309396505356,0.0034370499197393656,-0.11181311309337616, -0.080806158483028412,-1.0260821580886841,0.22037848830223083,-0.27285176515579224,0.098822087049484253,-0.13854524493217468,-0.012066920287907124,-0.012115828692913055,0.044849462807178497,-0.017415821552276611,0.085160583257675171,0.010178379714488983,0.088195927441120148, 
  /* [6][0][][] */ 2.2156345844268799,-0.19464617967605591,-0.32736456394195557,-0.088133238255977631,-0.2962113618850708,-0.02237146720290184,-0.0065276594832539558,-0.030583577230572701,-0.074559353291988373,-0.013736730441451073,0.012073798105120659,-0.11618398874998093,0.11338791251182556, -0.11966226994991302,0.097058750689029694,0.33895879983901978,0.18116334080696106,0.24239352345466614,0.11702168732881546,0.075650900602340698,0.069990791380405426,0.064348921179771423,0.0082670627161860466,0.09772837907075882,0.1582094132900238,-0.078639991581439972, -2.1752433776855469,0.11886093020439148,0.2285599410533905,-0.040310971438884735,-0.071085721254348755,0.059652313590049744,-0.058327268809080124,0.014558319002389908,-0.04410485178232193,-0.039270468056201935,-0.014786703512072563,-0.020714430138468742,0.01167878694832325, 
  /* [7][0][][] */ -0.098306909203529358,0.070220217108726501,0.68947505950927734,0.083842016756534576,0.26953232288360596,0.0015479176072403789,-0.2017473429441452,-0.047809753566980362,-0.10987779498100281,-0.071946412324905396,0.07269325852394104,0.097598589956760406,-0.10590534657239914, 0.87577903270721436,0.080244839191436768,0.31239181756973267,-0.024193495512008667,-0.21979072690010071,0.14087790250778198,-0.32349333167076111,0.095741070806980133,0.001372775761410594,-0.1209857314825058,0.025627145543694496,0.015970736742019653,-0.0070119192823767662, -0.44024926424026489,-0.19990319013595581,0.9368625283241272,0.25769001245498657,-0.41860625147819519,0.072227790951728821,-0.0092301517724990845,-0.01519950944930315,-0.02365640364587307,0.11106234043836594,-0.035040419548749924,0.077361240983009338,0.13802261650562286, 
};
const TfArray<4, int> tensor_dimension7 = { 4, { 8,1,3,13 } };
const ALIGN(8) float tensor_data8[16] = { 0, 0, 0, 0, 0, 0, 0, 0, 0, 0, 0, 0, 0, 0, 0, 0, };
const TfArray<1, int> tensor_dimension8 = { 1, { 16 } };
const ALIGN(8) float tensor_data9[16*1*3*8] = { 
  /* [0][0][][] */ 0.099825456738471985,-0.42838436365127563,-0.81777983903884888,0.073824793100357056,-0.98063641786575317,-0.18498964607715607,-0.10975564271211624,-0.60529470443725586, 0.03555714339017868,-0.26363861560821533,-0.21278154850006104,-0.42996180057525635,-1.082705020904541,-0.48783797025680542,-0.19793973863124847,-0.14771531522274017, 0.00083039584569633007,-0.29115229845046997,-1.6204661130905151,-0.16069163382053375,-0.90774053335189819,-0.37762659788131714,-0.3470001220703125,-0.05150986835360527, 
  /* [1][0][][] */ -1.3834729194641113,-0.2678811252117157,-0.13323895633220673,-0.092344664037227631,0.080043859779834747,0.053403548896312714,0.27398926019668579,-0.029410336166620255, -0.37026819586753845,-0.39597198367118835,-0.13949298858642578,0.0014707520604133606,0.03412662073969841,-0.061834558844566345,-0.082417011260986328,-0.037510231137275696, -0.13556084036827087,0.32625904679298401,0.015132476575672626,0.05458194762468338,0.02338627353310585,-0.040269035845994949,0.21572288870811462,-0.035171620547771454, 
  /* [2][0][][] */ -0.25081554055213928,-0.55030691623687744,-0.1884925365447998,-0.44788715243339539,-0.27104702591896057,0.58364158868789673,-0.18679335713386536,0.01325550302863121, -0.23011039197444916,-0.58066481351852417,-0.09063316136598587,-1.8008708953857422,-0.16402563452720642,-0.097916200757026672,0.018982140347361565,0.095650948584079742, -0.035189736634492874,-0.69949245452880859,-0.046592667698860168,-2.1253597736358643,-0.22622440755367279,-0.040549680590629578,0.021839400753378868,0.087592333555221558, 
  /* [3][0][][] */ -0.74694657325744629,0.086079083383083344,-0.030160771682858467,0.20205788314342499,0.075702480971813202,0.2656819224357605,0.032349582761526108,-0.010231884196400642, -1.1027818918228149,0.38223189115524292,-0.041206348687410355,-0.108535036444664,-0.055392161011695862,-0.015070248395204544,0.077113427221775055,-0.070751696825027466, -0.17766378819942474,0.15234112739562988,-0.16565161943435669,-0.16260440647602081,-0.2162090390920639,-0.015736356377601624,0.25147083401679993,-0.069729246199131012, 
  /* [4][0][][] */ -0.45223399996757507,0.28918245434761047,-0.027361303567886353,-0.60907661914825439,-1.3346309661865234,-0.28953438997268677,-0.57111060619354248,0.35121670365333557, -1.4959176778793335,0.14157985150814056,0.048719014972448349,-0.20334182679653168,-1.3812587261199951,0.044480640441179276,-0.98661023378372192,0.02160230278968811, -0.88258862495422363,0.081133730709552765,0.13792209327220917,0.35406416654586792,-0.71640610694885254,0.24942207336425781,-1.3642624616622925,-0.089152485132217407, 
  /* [5][0][][] */ -0.8340599536895752,-0.073164381086826324,0.0092832455411553383,0.32177978754043579,0.2218882292509079,0.037098933011293411,-0.54613590240478516,-0.53559160232543945, -0.81684893369674683,-0.11546086519956589,-0.19014300405979156,-0.13429670035839081,-0.03882463276386261,-0.072915136814117432,-1.2134386301040649,-0.32435885071754456, -0.59997636079788208,-0.17612616717815399,-0.2038680762052536,0.37301146984100342,0.11285248398780823,-0.16916055977344513,-0.6171410083770752,-0.2983892560005188, 
  /* [6][0][][] */ -0.04780082032084465,-0.19346502423286438,-0.39545059204101562,-0.27053806185722351,-0.12036661803722382,-0.079173609614372253,-0.065023109316825867,-0.62054383754730225, -0.038804620504379272,-0.011098130606114864,-0.77080035209655762,-0.2336881160736084,-0.13746972382068634,0.60836106538772583,-0.05772777646780014,-0.82573187351226807, -0.12905046343803406,-0.085217922925949097,-0.68660402297973633,-0.24400009214878082,-0.33118921518325806,-0.024206671863794327,-0.026510879397392273,-1.3116222620010376, 
  /* [7][0][][] */ -0.041343554854393005,-0.18321767449378967,0.077298253774642944,-0.30957496166229248,-0.38333591818809509,0.54600805044174194,0.00092702859546989202,-0.6371077299118042, -0.076554432511329651,0.062281642109155655,-0.63398206233978271,-0.7530062198638916,0.040625620633363724,-0.31993496417999268,0.13325859606266022,-1.0525056123733521, 0.010503547266125679,-0.0095517579466104507,-1.1150527000427246,-0.30259779095649719,-0.46196386218070984,-0.2403368204832077,-0.022051706910133362,-0.93844300508499146, 
  /* [8][0][][] */ -2.1566898822784424,-0.76206123828887939,0.29805973172187805,0.038029756397008896,-0.034623041749000549,0.065442837774753571,-0.088518820703029633,0.082878716289997101, -1.320160984992981,-1.0120601654052734,-0.050583049654960632,-0.46853873133659363,-0.39713761210441589,0.00047915882896631956,0.032051049172878265,-0.11606994271278381, -0.24067318439483643,-0.33855393528938293,-0.20940496027469635,-1.228381872177124,-0.51050072908401489,-0.13316178321838379,0.13281480967998505,0.34499013423919678, 
  /* [9][0][][] */ -0.76339960098266602,-0.38514575362205505,-0.40714782476425171,-1.021763801574707,0.18408159911632538,-0.13711963593959808,-1.9800493717193604,0.54842561483383179, -1.2126920223236084,-0.34828272461891174,-0.13996759057044983,-0.36318358778953552,0.27876695990562439,0.08160698413848877,-0.88134676218032837,-0.079271487891674042, -0.82784265279769897,-0.52484619617462158,0.39931657910346985,-0.42064392566680908,0.11926900595426559,0.044875036925077438,-0.72382074594497681,-0.16317781805992126, 
  /* [10][0][][] */ 0.033886082470417023,-0.41272523999214172,-0.45460209250450134,-0.17482940852642059,0.36132660508155823,-0.28739750385284424,-0.20576561987400055,-0.8170320987701416, 0.18374711275100708,-0.021800639107823372,-0.59946233034133911,-0.055630121380090714,-0.34513983130455017,-0.084254495799541473,-0.01429473701864481,-0.2777378261089325, -0.055119626224040985,-0.062886491417884827,-0.70170027017593384,-0.71746069192886353,-0.35095426440238953,-0.0028166365809738636,-0.31702190637588501,0.22146229445934296, 
  /* [11][0][][] */ -0.031112568452954292,-0.047375224530696869,-0.78490740060806274,-0.25621312856674194,0.036753270775079727,-1.146920919418335,-0.032555770128965378,-0.4936334490776062, -0.02310979925096035,0.18185107409954071,-0.51281702518463135,-0.17888408899307251,0.084590330719947815,-0.64762473106384277,-0.13305662572383881,-0.46864628791809082, -0.23850364983081818,0.032216373831033707,-0.018919354304671288,0.56755936145782471,0.0041331639513373375,0.14725235104560852,-0.34746211767196655,-1.6945312023162842, 
  /* [12][0][][] */ -0.60191792249679565,-0.057302892208099365,-0.86864763498306274,0.1188046783208847,0.40200239419937134,-0.36006885766983032,-0.062971115112304688,-0.25082880258560181, -0.5112769603729248,-0.23236545920372009,-0.62904894351959229,-0.40954315662384033,-0.29579073190689087,-0.65651452541351318,0.039283204823732376,-0.14976629614830017, -0.43903949856758118,-0.13662119209766388,-0.49019598960876465,-0.63603019714355469,-0.033841464668512344,-0.75147032737731934,0.13890950381755829,-0.10832903534173965, 
  /* [13][0][][] */ -1.1334571838378906,-1.3744887113571167,-0.23991534113883972,0.37894523143768311,-0.070051759481430054,0.22777602076530457,-0.10298218578100204,-0.74416923522949219, -1.1785014867782593,-0.82802200317382812,-1.17525315284729,-0.23061327636241913,0.25626122951507568,-0.1081770732998848,-0.30386269092559814,-1.0364121198654175, -2.0012326240539551,-0.33968871831893921,-0.95193320512771606,-0.41670572757720947,0.22318688035011292,-0.21867412328720093,-0.4160434901714325,-0.54076194763183594, 
  /* [14][0][][] */ -0.061252273619174957,-0.57059407234191895,-0.39927467703819275,-0.56384611129760742,-0.24004772305488586,0.10726629197597504,-0.49601024389266968,-0.45495486259460449, -0.016597304493188858,-0.064859762787818909,-0.50552481412887573,-0.65604197978973389,-0.37485051155090332,-0.028383823111653328,-0.5042121410369873,-0.92243200540542603, -0.052108705043792725,-0.33156496286392212,-0.58491647243499756,-0.4725702702999115,-0.67970341444015503,0.18202294409275055,-0.420317143201828,-1.3518567085266113, 
  /* [15][0][][] */ -0.0469076968729496,0.14135625958442688,-0.74325823783874512,-0.40449640154838562,-0.012456132099032402,-0.82138603925704956,-1.0552295446395874,0.10226292163133621, -0.60682123899459839,0.0024001295678317547,-0.37824389338493347,-0.32466402649879456,-0.11891970038414001,-0.19881488382816315,-1.2642229795455933,-0.12695750594139099, -0.82965397834777832,-0.051768407225608826,0.36380726099014282,-0.11490129679441452,0.10258033126592636,-0.062041576951742172,-0.87766379117965698,0.50932151079177856, 
};
const TfArray<4, int> tensor_dimension9 = { 4, { 16,1,3,8 } };
const ALIGN(8) int32_t tensor_data10[4] = { 1, 1, 98, 13, };
const TfArray<1, int> tensor_dimension10 = { 1, { 4 } };
const ALIGN(8) int32_t tensor_data11[3] = { 1, 98, 8, };
const TfArray<1, int> tensor_dimension11 = { 1, { 3 } };
const ALIGN(8) int32_t tensor_data12[4] = { 1, 98, 1, 8, };
const TfArray<1, int> tensor_dimension12 = { 1, { 4 } };
const ALIGN(8) int32_t tensor_data13[4] = { 1, 1, 49, 8, };
const TfArray<1, int> tensor_dimension13 = { 1, { 4 } };
const ALIGN(8) int32_t tensor_data14[3] = { 1, 49, 16, };
const TfArray<1, int> tensor_dimension14 = { 1, { 3 } };
const ALIGN(8) int32_t tensor_data15[4] = { 1, 49, 1, 16, };
const TfArray<1, int> tensor_dimension15 = { 1, { 4 } };
const TfArray<4, int> tensor_dimension16 = { 4, { 1,1,98,13 } };
const TfArray<4, int> tensor_dimension17 = { 4, { 1,1,98,8 } };
const TfArray<3, int> tensor_dimension18 = { 3, { 1,98,8 } };
const TfArray<3, int> tensor_dimension19 = { 3, { 1,98,8 } };
const TfArray<4, int> tensor_dimension20 = { 4, { 1,98,1,8 } };
const TfArray<4, int> tensor_dimension21 = { 4, { 1,49,1,8 } };
const TfArray<4, int> tensor_dimension22 = { 4, { 1,1,49,8 } };
const TfArray<4, int> tensor_dimension23 = { 4, { 1,1,49,16 } };
const TfArray<3, int> tensor_dimension24 = { 3, { 1,49,16 } };
const TfArray<3, int> tensor_dimension25 = { 3, { 1,49,16 } };
const TfArray<4, int> tensor_dimension26 = { 4, { 1,49,1,16 } };
const TfArray<4, int> tensor_dimension27 = { 4, { 1,25,1,16 } };
const TfArray<2, int> tensor_dimension28 = { 2, { 1,400 } };
const TfArray<2, int> tensor_dimension29 = { 2, { 1,4 } };
const TfArray<2, int> tensor_dimension30 = { 2, { 1,4 } };
const TfLiteReshapeParams opdata0 = { { 0, 0, 0, 0, 0, 0, 0, 0, }, 0 };
const TfArray<2, int> inputs0 = { 2, { 0,10 } };
const TfArray<1, int> outputs0 = { 1, { 16 } };
const TfLiteConvParams opdata1 = { kTfLitePaddingSame, 1,1, kTfLiteActNone, 1,1 };
const TfArray<3, int> inputs1 = { 3, { 16,7,6 } };
const TfArray<1, int> outputs1 = { 1, { 17 } };
const TfLiteReshapeParams opdata2 = { { 0, 0, 0, 0, 0, 0, 0, 0, }, 0 };
const TfArray<2, int> inputs2 = { 2, { 17,11 } };
const TfArray<1, int> outputs2 = { 1, { 18 } };
const TfLiteAddParams opdata3 = { kTfLiteActRelu };
const TfArray<2, int> inputs3 = { 2, { 18,2 } };
const TfArray<1, int> outputs3 = { 1, { 19 } };
const TfLiteReshapeParams opdata4 = { { 0, 0, 0, 0, 0, 0, 0, 0, }, 0 };
const TfArray<2, int> inputs4 = { 2, { 19,12 } };
const TfArray<1, int> outputs4 = { 1, { 20 } };
const TfLitePoolParams opdata5 = { kTfLitePaddingSame, 1,2, 1,2, kTfLiteActNone, { { 0,0, 0, 0 } } };
const TfArray<1, int> inputs5 = { 1, { 20 } };
const TfArray<1, int> outputs5 = { 1, { 21 } };
const TfLiteReshapeParams opdata6 = { { 0, 0, 0, 0, 0, 0, 0, 0, }, 0 };
const TfArray<2, int> inputs6 = { 2, { 21,13 } };
const TfArray<1, int> outputs6 = { 1, { 22 } };
const TfLiteConvParams opdata7 = { kTfLitePaddingSame, 1,1, kTfLiteActNone, 1,1 };
const TfArray<3, int> inputs7 = { 3, { 22,9,8 } };
const TfArray<1, int> outputs7 = { 1, { 23 } };
const TfLiteReshapeParams opdata8 = { { 0, 0, 0, 0, 0, 0, 0, 0, }, 0 };
const TfArray<2, int> inputs8 = { 2, { 23,14 } };
const TfArray<1, int> outputs8 = { 1, { 24 } };
const TfLiteAddParams opdata9 = { kTfLiteActRelu };
const TfArray<2, int> inputs9 = { 2, { 24,3 } };
const TfArray<1, int> outputs9 = { 1, { 25 } };
const TfLiteReshapeParams opdata10 = { { 0, 0, 0, 0, 0, 0, 0, 0, }, 0 };
const TfArray<2, int> inputs10 = { 2, { 25,15 } };
const TfArray<1, int> outputs10 = { 1, { 26 } };
const TfLitePoolParams opdata11 = { kTfLitePaddingSame, 1,2, 1,2, kTfLiteActNone, { { 0,0, 0, 0 } } };
const TfArray<1, int> inputs11 = { 1, { 26 } };
const TfArray<1, int> outputs11 = { 1, { 27 } };
const TfLiteReshapeParams opdata12 = { { 0, 0, 0, 0, 0, 0, 0, 0, }, 0 };
const TfArray<2, int> inputs12 = { 2, { 27,1 } };
const TfArray<1, int> outputs12 = { 1, { 28 } };
const TfLiteFullyConnectedParams opdata13 = { kTfLiteActNone, kTfLiteFullyConnectedWeightsFormatDefault, false, false };
const TfArray<3, int> inputs13 = { 3, { 28,5,4 } };
const TfArray<1, int> outputs13 = { 1, { 29 } };
const TfLiteSoftmaxParams opdata14 = { 1 };
const TfArray<1, int> inputs14 = { 1, { 29 } };
const TfArray<1, int> outputs14 = { 1, { 30 } };
const TensorInfo_t tensorData[] = {
  { kTfLiteArenaRw, kTfLiteFloat32, tensor_arena + 5104, (TfLiteIntArray*)&tensor_dimension0, 5096, },
  { kTfLiteMmapRo, kTfLiteInt32, (void*)tensor_data1, (TfLiteIntArray*)&tensor_dimension1, 8, },
  { kTfLiteMmapRo, kTfLiteFloat32, (void*)tensor_data2, (TfLiteIntArray*)&tensor_dimension2, 32, },
  { kTfLiteMmapRo, kTfLiteFloat32, (void*)tensor_data3, (TfLiteIntArray*)&tensor_dimension3, 64, },
  { kTfLiteMmapRo, kTfLiteFloat32, (void*)tensor_data4, (TfLiteIntArray*)&tensor_dimension4, 16, },
  { kTfLiteMmapRo, kTfLiteFloat32, (void*)tensor_data5, (TfLiteIntArray*)&tensor_dimension5, 6400, },
  { kTfLiteMmapRo, kTfLiteFloat32, (void*)tensor_data6, (TfLiteIntArray*)&tensor_dimension6, 32, },
  { kTfLiteMmapRo, kTfLiteFloat32, (void*)tensor_data7, (TfLiteIntArray*)&tensor_dimension7, 1248, },
  { kTfLiteMmapRo, kTfLiteFloat32, (void*)tensor_data8, (TfLiteIntArray*)&tensor_dimension8, 64, },
  { kTfLiteMmapRo, kTfLiteFloat32, (void*)tensor_data9, (TfLiteIntArray*)&tensor_dimension9, 1536, },
  { kTfLiteMmapRo, kTfLiteInt32, (void*)tensor_data10, (TfLiteIntArray*)&tensor_dimension10, 16, },
  { kTfLiteMmapRo, kTfLiteInt32, (void*)tensor_data11, (TfLiteIntArray*)&tensor_dimension11, 12, },
  { kTfLiteMmapRo, kTfLiteInt32, (void*)tensor_data12, (TfLiteIntArray*)&tensor_dimension12, 16, },
  { kTfLiteMmapRo, kTfLiteInt32, (void*)tensor_data13, (TfLiteIntArray*)&tensor_dimension13, 16, },
  { kTfLiteMmapRo, kTfLiteInt32, (void*)tensor_data14, (TfLiteIntArray*)&tensor_dimension14, 12, },
  { kTfLiteMmapRo, kTfLiteInt32, (void*)tensor_data15, (TfLiteIntArray*)&tensor_dimension15, 16, },
  { kTfLiteArenaRw, kTfLiteFloat32, tensor_arena + 0, (TfLiteIntArray*)&tensor_dimension16, 5096, },
  { kTfLiteArenaRw, kTfLiteFloat32, tensor_arena + 5104, (TfLiteIntArray*)&tensor_dimension17, 3136, },
  { kTfLiteArenaRw, kTfLiteFloat32, tensor_arena + 0, (TfLiteIntArray*)&tensor_dimension18, 3136, },
  { kTfLiteArenaRw, kTfLiteFloat32, tensor_arena + 3136, (TfLiteIntArray*)&tensor_dimension19, 3136, },
  { kTfLiteArenaRw, kTfLiteFloat32, tensor_arena + 0, (TfLiteIntArray*)&tensor_dimension20, 3136, },
  { kTfLiteArenaRw, kTfLiteFloat32, tensor_arena + 3136, (TfLiteIntArray*)&tensor_dimension21, 1568, },
  { kTfLiteArenaRw, kTfLiteFloat32, tensor_arena + 0, (TfLiteIntArray*)&tensor_dimension22, 1568, },
  { kTfLiteArenaRw, kTfLiteFloat32, tensor_arena + 3136, (TfLiteIntArray*)&tensor_dimension23, 3136, },
  { kTfLiteArenaRw, kTfLiteFloat32, tensor_arena + 0, (TfLiteIntArray*)&tensor_dimension24, 3136, },
  { kTfLiteArenaRw, kTfLiteFloat32, tensor_arena + 3136, (TfLiteIntArray*)&tensor_dimension25, 3136, },
  { kTfLiteArenaRw, kTfLiteFloat32, tensor_arena + 0, (TfLiteIntArray*)&tensor_dimension26, 3136, },
  { kTfLiteArenaRw, kTfLiteFloat32, tensor_arena + 3136, (TfLiteIntArray*)&tensor_dimension27, 1600, },
  { kTfLiteArenaRw, kTfLiteFloat32, tensor_arena + 0, (TfLiteIntArray*)&tensor_dimension28, 1600, },
  { kTfLiteArenaRw, kTfLiteFloat32, tensor_arena + 1600, (TfLiteIntArray*)&tensor_dimension29, 16, },
  { kTfLiteArenaRw, kTfLiteFloat32, tensor_arena + 0, (TfLiteIntArray*)&tensor_dimension30, 16, },
};const NodeInfo_t nodeData[] = {
  { (TfLiteIntArray*)&inputs0, (TfLiteIntArray*)&outputs0, const_cast<void*>(static_cast<const void*>(&opdata0)), OP_RESHAPE, },
  { (TfLiteIntArray*)&inputs1, (TfLiteIntArray*)&outputs1, const_cast<void*>(static_cast<const void*>(&opdata1)), OP_CONV_2D, },
  { (TfLiteIntArray*)&inputs2, (TfLiteIntArray*)&outputs2, const_cast<void*>(static_cast<const void*>(&opdata2)), OP_RESHAPE, },
  { (TfLiteIntArray*)&inputs3, (TfLiteIntArray*)&outputs3, const_cast<void*>(static_cast<const void*>(&opdata3)), OP_ADD, },
  { (TfLiteIntArray*)&inputs4, (TfLiteIntArray*)&outputs4, const_cast<void*>(static_cast<const void*>(&opdata4)), OP_RESHAPE, },
  { (TfLiteIntArray*)&inputs5, (TfLiteIntArray*)&outputs5, const_cast<void*>(static_cast<const void*>(&opdata5)), OP_MAX_POOL_2D, },
  { (TfLiteIntArray*)&inputs6, (TfLiteIntArray*)&outputs6, const_cast<void*>(static_cast<const void*>(&opdata6)), OP_RESHAPE, },
  { (TfLiteIntArray*)&inputs7, (TfLiteIntArray*)&outputs7, const_cast<void*>(static_cast<const void*>(&opdata7)), OP_CONV_2D, },
  { (TfLiteIntArray*)&inputs8, (TfLiteIntArray*)&outputs8, const_cast<void*>(static_cast<const void*>(&opdata8)), OP_RESHAPE, },
  { (TfLiteIntArray*)&inputs9, (TfLiteIntArray*)&outputs9, const_cast<void*>(static_cast<const void*>(&opdata9)), OP_ADD, },
  { (TfLiteIntArray*)&inputs10, (TfLiteIntArray*)&outputs10, const_cast<void*>(static_cast<const void*>(&opdata10)), OP_RESHAPE, },
  { (TfLiteIntArray*)&inputs11, (TfLiteIntArray*)&outputs11, const_cast<void*>(static_cast<const void*>(&opdata11)), OP_MAX_POOL_2D, },
  { (TfLiteIntArray*)&inputs12, (TfLiteIntArray*)&outputs12, const_cast<void*>(static_cast<const void*>(&opdata12)), OP_RESHAPE, },
  { (TfLiteIntArray*)&inputs13, (TfLiteIntArray*)&outputs13, const_cast<void*>(static_cast<const void*>(&opdata13)), OP_FULLY_CONNECTED, },
  { (TfLiteIntArray*)&inputs14, (TfLiteIntArray*)&outputs14, const_cast<void*>(static_cast<const void*>(&opdata14)), OP_SOFTMAX, },
};
static std::vector<void*> overflow_buffers;
static TfLiteStatus AllocatePersistentBuffer(struct TfLiteContext* ctx,
                                                 size_t bytes, void** ptr) {
  if (current_location - bytes < tensor_boundary) {
    // OK, this will look super weird, but.... we have CMSIS-NN buffers which
    // we cannot calculate beforehand easily.
    *ptr = malloc(bytes);
    if (*ptr == NULL) {
      printf("ERR: Failed to allocate persistent buffer of size %d\n", (int)bytes);
      return kTfLiteError;
    }
    overflow_buffers.push_back(*ptr);
    return kTfLiteOk;
  }

  current_location -= bytes;

  *ptr = current_location;
  return kTfLiteOk;
}
typedef struct {
  size_t bytes;
  void *ptr;
} scratch_buffer_t;
static std::vector<scratch_buffer_t> scratch_buffers;

static TfLiteStatus RequestScratchBufferInArena(struct TfLiteContext* ctx, size_t bytes,
                                                int* buffer_idx) {
  scratch_buffer_t b;
  b.bytes = bytes;

  TfLiteStatus s = AllocatePersistentBuffer(ctx, b.bytes, &b.ptr);
  if (s != kTfLiteOk) {
    return s;
  }

  scratch_buffers.push_back(b);

  *buffer_idx = scratch_buffers.size() - 1;

  return kTfLiteOk;
}

static void* GetScratchBuffer(struct TfLiteContext* ctx, int buffer_idx) {
  if (buffer_idx > static_cast<int>(scratch_buffers.size()) - 1) {
    return NULL;
  }
  return scratch_buffers[buffer_idx].ptr;
}
} // namespace

  TfLiteStatus trained_model_init( void*(*alloc_fnc)(size_t,size_t) ) {
#ifdef EI_CLASSIFIER_ALLOCATION_HEAP
  tensor_arena = (uint8_t*) alloc_fnc(16, kTensorArenaSize);
#endif
  tensor_boundary = tensor_arena;
  current_location = tensor_arena + kTensorArenaSize;
  ctx.AllocatePersistentBuffer = &AllocatePersistentBuffer;
  ctx.RequestScratchBufferInArena = &RequestScratchBufferInArena;
  ctx.GetScratchBuffer = &GetScratchBuffer;
  ctx.tensors = tflTensors;
  ctx.tensors_size = 31;
  for(size_t i = 0; i < 31; ++i) {
    tflTensors[i].type = tensorData[i].type;
    tflTensors[i].is_variable = 0;

#if defined(EI_CLASSIFIER_ALLOCATION_HEAP)
    tflTensors[i].allocation_type = tensorData[i].allocation_type;
#else
    tflTensors[i].allocation_type = (tensor_arena <= tensorData[i].data && tensorData[i].data < tensor_arena + kTensorArenaSize) ? kTfLiteArenaRw : kTfLiteMmapRo;
#endif
    tflTensors[i].bytes = tensorData[i].bytes;
    tflTensors[i].dims = tensorData[i].dims;

#if defined(EI_CLASSIFIER_ALLOCATION_HEAP)
    if(tflTensors[i].allocation_type == kTfLiteArenaRw){
      uint8_t* start = (uint8_t*) ((uintptr_t)tensorData[i].data + (uintptr_t) tensor_arena);

     tflTensors[i].data.data =  start;
    }
    else{
       tflTensors[i].data.data = tensorData[i].data;
    }
#else
    tflTensors[i].data.data = tensorData[i].data;
#endif // EI_CLASSIFIER_ALLOCATION_HEAP
    tflTensors[i].quantization.type = kTfLiteNoQuantization;
    if (tflTensors[i].allocation_type == kTfLiteArenaRw) {
      auto data_end_ptr = (uint8_t*)tflTensors[i].data.data + tensorData[i].bytes;
      if (data_end_ptr > tensor_boundary) {
        tensor_boundary = data_end_ptr;
      }
    }
  }
  if (tensor_boundary > current_location /* end of arena size */) {
    printf("ERR: tensor arena is too small, does not fit model - even without scratch buffers\n");
    return kTfLiteError;
  }
  registrations[OP_RESHAPE] = *tflite::ops::micro::Register_RESHAPE();
  registrations[OP_CONV_2D] = *tflite::ops::micro::Register_CONV_2D();
  registrations[OP_ADD] = *tflite::ops::micro::Register_ADD();
  registrations[OP_MAX_POOL_2D] = *tflite::ops::micro::Register_MAX_POOL_2D();
  registrations[OP_FULLY_CONNECTED] = *tflite::ops::micro::Register_FULLY_CONNECTED();
  registrations[OP_SOFTMAX] = *tflite::ops::micro::Register_SOFTMAX();

  for(size_t i = 0; i < 15; ++i) {
    tflNodes[i].inputs = nodeData[i].inputs;
    tflNodes[i].outputs = nodeData[i].outputs;
    tflNodes[i].builtin_data = nodeData[i].builtin_data;
    tflNodes[i].custom_initial_data = nullptr;
    tflNodes[i].custom_initial_data_size = 0;
    if (registrations[nodeData[i].used_op_index].init) {
      tflNodes[i].user_data = registrations[nodeData[i].used_op_index].init(&ctx, (const char*)tflNodes[i].builtin_data, 0);
    }
  }
  for(size_t i = 0; i < 15; ++i) {
    if (registrations[nodeData[i].used_op_index].prepare) {
      TfLiteStatus status = registrations[nodeData[i].used_op_index].prepare(&ctx, &tflNodes[i]);
      if (status != kTfLiteOk) {
        return status;
      }
    }
  }
  return kTfLiteOk;
}

static const int inTensorIndices[] = {
  0, 
};
TfLiteTensor* trained_model_input(int index) {
  return &ctx.tensors[inTensorIndices[index]];
}

static const int outTensorIndices[] = {
  30, 
};
TfLiteTensor* trained_model_output(int index) {
  return &ctx.tensors[outTensorIndices[index]];
}

TfLiteStatus trained_model_invoke() {
  for(size_t i = 0; i < 15; ++i) {
    TfLiteStatus status = registrations[nodeData[i].used_op_index].invoke(&ctx, &tflNodes[i]);
    if (status != kTfLiteOk) {
      return status;
    }
  }
  return kTfLiteOk;
}

TfLiteStatus trained_model_reset( void (*free_fnc)(void* ptr) ) {
#ifdef EI_CLASSIFIER_ALLOCATION_HEAP
  free_fnc(tensor_arena);
#endif
  scratch_buffers.clear();
  for (size_t ix = 0; ix < overflow_buffers.size(); ix++) {
    free(overflow_buffers[ix]);
  }
  overflow_buffers.clear();
  return kTfLiteOk;
}
